## Random Forests
## No. of bags = 1000
## Sub-sampling = 1.0
## Feature-sampling = 0.3
## No. of trees = 1
## No. of leaves = 10
## No. of threshold candidates = 256
## Learning rate = 0.1

<ensemble>
	<tree id="1" weight="0.1">
		<split>
			<feature> 4 </feature>
			<threshold> 0.08203125 </threshold>
			<split pos="left">
				<feature> 12 </feature>
				<threshold> 0.00390625 </threshold>
				<split pos="left">
					<feature> 2 </feature>
					<threshold> 0.12890625 </threshold>
					<split pos="left">
						<output> 0.11643985658884048 </output>
					</split>
					<split pos="right">
						<output> 0.2645435333251953 </output>
					</split>
				</split>
				<split pos="right">
					<feature> 10 </feature>
					<threshold> 0.0 </threshold>
					<split pos="left">
						<output> 0.6467289924621582 </output>
					</split>
					<split pos="right">
						<feature> 1 </feature>
						<threshold> 0.09765625 </threshold>
						<split pos="left">
							<output> 0.25490593910217285 </output>
						</split>
						<split pos="right">
							<feature> 1 </feature>
							<threshold> 0.375 </threshold>
							<split pos="left">
								<output> 0.4086538553237915 </output>
							</split>
							<split pos="right">
								<output> 0.6077844500541687 </output>
							</split>
						</split>
					</split>
				</split>
			</split>
			<split pos="right">
				<feature> 11 </feature>
				<threshold> 0.5 </threshold>
				<split pos="left">
					<output> 0.42421722412109375 </output>
				</split>
				<split pos="right">
					<feature> 10 </feature>
					<threshold> 0.11111113 </threshold>
					<split pos="left">
						<output> 0.8054818511009216 </output>
					</split>
					<split pos="right">
						<feature> 7 </feature>
						<threshold> 0.08203125 </threshold>
						<split pos="left">
							<output> 0.47948378324508667 </output>
						</split>
						<split pos="right">
							<output> 0.6662396192550659 </output>
						</split>
					</split>
				</split>
			</split>
		</split>
	</tree>
</ensemble>

<ensemble>
	<tree id="1" weight="0.1">
		<split>
			<feature> 1 </feature>
			<threshold> 0.05859375 </threshold>
			<split pos="left">
				<feature> 2 </feature>
				<threshold> 0.03125 </threshold>
				<split pos="left">
					<output> 0.15534262359142303 </output>
				</split>
				<split pos="right">
					<output> 0.2547374963760376 </output>
				</split>
			</split>
			<split pos="right">
				<feature> 12 </feature>
				<threshold> 0.015625 </threshold>
				<split pos="left">
					<feature> 1 </feature>
					<threshold> 0.25 </threshold>
					<split pos="left">
						<feature> 10 </feature>
						<threshold> 0.0 </threshold>
						<split pos="left">
							<output> 0.4844006597995758 </output>
						</split>
						<split pos="right">
							<output> 0.23442773520946503 </output>
						</split>
					</split>
					<split pos="right">
						<feature> 10 </feature>
						<threshold> 0.5 </threshold>
						<split pos="left">
							<output> 0.2928571403026581 </output>
						</split>
						<split pos="right">
							<output> 0.42359960079193115 </output>
						</split>
					</split>
				</split>
				<split pos="right">
					<feature> 5 </feature>
					<threshold> 0.01171875 </threshold>
					<split pos="left">
						<output> 0.6744639277458191 </output>
					</split>
					<split pos="right">
						<feature> 2 </feature>
						<threshold> 0.41796875 </threshold>
						<split pos="left">
							<feature> 1 </feature>
							<threshold> 0.125 </threshold>
							<split pos="left">
								<output> 0.38233792781829834 </output>
							</split>
							<split pos="right">
								<output> 0.4957415461540222 </output>
							</split>
						</split>
						<split pos="right">
							<output> 0.682572603225708 </output>
						</split>
					</split>
				</split>
			</split>
		</split>
	</tree>
</ensemble>

<ensemble>
	<tree id="1" weight="0.1">
		<split>
			<feature> 3 </feature>
			<threshold> 0.08984375 </threshold>
			<split pos="left">
				<feature> 12 </feature>
				<threshold> 0.00390625 </threshold>
				<split pos="left">
					<feature> 5 </feature>
					<threshold> 0.99609375 </threshold>
					<split pos="left">
						<feature> 1 </feature>
						<threshold> 0.078125 </threshold>
						<split pos="left">
							<output> 0.09613095223903656 </output>
						</split>
						<split pos="right">
							<output> 0.20974449813365936 </output>
						</split>
					</split>
					<split pos="right">
						<output> 0.2358155995607376 </output>
					</split>
				</split>
				<split pos="right">
					<feature> 2 </feature>
					<threshold> 0.05078125 </threshold>
					<split pos="left">
						<output> 0.24103586375713348 </output>
					</split>
					<split pos="right">
						<feature> 12 </feature>
						<threshold> 0.046875 </threshold>
						<split pos="left">
							<output> 0.3080877363681793 </output>
						</split>
						<split pos="right">
							<output> 0.4310208261013031 </output>
						</split>
					</split>
				</split>
			</split>
			<split pos="right">
				<feature> 11 </feature>
				<threshold> 0.6666666 </threshold>
				<split pos="left">
					<output> 0.3485530614852905 </output>
				</split>
				<split pos="right">
					<feature> 11 </feature>
					<threshold> 0.6666667 </threshold>
					<split pos="left">
						<output> 0.6902887225151062 </output>
					</split>
					<split pos="right">
						<feature> 7 </feature>
						<threshold> 0.015625 </threshold>
						<split pos="left">
							<output> 0.38743454217910767 </output>
						</split>
						<split pos="right">
							<output> 0.6317166090011597 </output>
						</split>
					</split>
				</split>
			</split>
		</split>
	</tree>
</ensemble>

<ensemble>
	<tree id="1" weight="0.1">
		<split>
			<feature> 5 </feature>
			<threshold> 0.00390625 </threshold>
			<split pos="left">
				<feature> 11 </feature>
				<threshold> 0.6666666 </threshold>
				<split pos="left">
					<output> 0.295344740152359 </output>
				</split>
				<split pos="right">
					<output> 0.6864864826202393 </output>
				</split>
			</split>
			<split pos="right">
				<feature> 10 </feature>
				<threshold> 0.8333334 </threshold>
				<split pos="left">
					<feature> 11 </feature>
					<threshold> 0.3333333 </threshold>
					<split pos="left">
						<feature> 4 </feature>
						<threshold> 0.234375 </threshold>
						<split pos="left">
							<feature> 5 </feature>
							<threshold> 0.05859375 </threshold>
							<split pos="left">
								<output> 0.10758513957262039 </output>
							</split>
							<split pos="right">
								<output> 0.18394938111305237 </output>
							</split>
						</split>
						<split pos="right">
							<output> 0.24242424964904785 </output>
						</split>
					</split>
					<split pos="right">
						<output> 0.4098360538482666 </output>
					</split>
				</split>
				<split pos="right">
					<feature> 11 </feature>
					<threshold> 0.6666666 </threshold>
					<split pos="left">
						<feature> 12 </feature>
						<threshold> 0.015625 </threshold>
						<split pos="left">
							<output> 0.22295475006103516 </output>
						</split>
						<split pos="right">
							<feature> 1 </feature>
							<threshold> 0.1328125 </threshold>
							<split pos="left">
								<output> 0.2934131622314453 </output>
							</split>
							<split pos="right">
								<output> 0.5118518471717834 </output>
							</split>
						</split>
					</split>
					<split pos="right">
						<output> 0.6622488498687744 </output>
					</split>
				</split>
			</split>
		</split>
	</tree>
</ensemble>

<ensemble>
	<tree id="1" weight="0.1">
		<split>
			<feature> 4 </feature>
			<threshold> 0.0 </threshold>
			<split pos="left">
				<feature> 1 </feature>
				<threshold> 0.03515625 </threshold>
				<split pos="left">
					<feature> 7 </feature>
					<threshold> 0.04296875 </threshold>
					<split pos="left">
						<output> 0.0966239795088768 </output>
					</split>
					<split pos="right">
						<output> 0.15533244609832764 </output>
					</split>
				</split>
				<split pos="right">
					<feature> 2 </feature>
					<threshold> 0.12890625 </threshold>
					<split pos="left">
						<feature> 7 </feature>
						<threshold> 0.0546875 </threshold>
						<split pos="left">
							<output> 0.20481184124946594 </output>
						</split>
						<split pos="right">
							<output> 0.2977527976036072 </output>
						</split>
					</split>
					<split pos="right">
						<feature> 1 </feature>
						<threshold> 0.3515625 </threshold>
						<split pos="left">
							<feature> 5 </feature>
							<threshold> 0.04296875 </threshold>
							<split pos="left">
								<output> 0.29714077711105347 </output>
							</split>
							<split pos="right">
								<output> 0.3685092031955719 </output>
							</split>
						</split>
						<split pos="right">
							<output> 0.3854529559612274 </output>
						</split>
					</split>
				</split>
			</split>
			<split pos="right">
				<feature> 3 </feature>
				<threshold> 0.23828125 </threshold>
				<split pos="left">
					<output> 0.5057393908500671 </output>
				</split>
				<split pos="right">
					<feature> 12 </feature>
					<threshold> 0.0078125 </threshold>
					<split pos="left">
						<output> 0.3610491156578064 </output>
					</split>
					<split pos="right">
						<output> 0.7955043911933899 </output>
					</split>
				</split>
			</split>
		</split>
	</tree>
</ensemble>

<ensemble>
	<tree id="1" weight="0.1">
		<split>
			<feature> 3 </feature>
			<threshold> 0.08984375 </threshold>
			<split pos="left">
				<feature> 10 </feature>
				<threshold> 0.7777778 </threshold>
				<split pos="left">
					<feature> 10 </feature>
					<threshold> 0.0 </threshold>
					<split pos="left">
						<output> 0.2171221226453781 </output>
					</split>
					<split pos="right">
						<output> 0.15760205686092377 </output>
					</split>
				</split>
				<split pos="right">
					<feature> 2 </feature>
					<threshold> 0.05078125 </threshold>
					<split pos="left">
						<output> 0.22094926238059998 </output>
					</split>
					<split pos="right">
						<feature> 1 </feature>
						<threshold> 0.14453125 </threshold>
						<split pos="left">
							<output> 0.3285752832889557 </output>
						</split>
						<split pos="right">
							<feature> 7 </feature>
							<threshold> 0.01171875 </threshold>
							<split pos="left">
								<output> 0.2585315406322479 </output>
							</split>
							<split pos="right">
								<output> 0.471235454082489 </output>
							</split>
						</split>
					</split>
				</split>
			</split>
			<split pos="right">
				<feature> 7 </feature>
				<threshold> 0.01953125 </threshold>
				<split pos="left">
					<output> 0.4353628158569336 </output>
				</split>
				<split pos="right">
					<feature> 10 </feature>
					<threshold> 0.11111113 </threshold>
					<split pos="left">
						<output> 0.8064516186714172 </output>
					</split>
					<split pos="right">
						<feature> 10 </feature>
						<threshold> 0.9 </threshold>
						<split pos="left">
							<output> 0.33734938502311707 </output>
						</split>
						<split pos="right">
							<output> 0.6118980050086975 </output>
						</split>
					</split>
				</split>
			</split>
		</split>
	</tree>
</ensemble>

<ensemble>
	<tree id="1" weight="0.1">
		<split>
			<feature> 4 </feature>
			<threshold> 0.0 </threshold>
			<split pos="left">
				<feature> 7 </feature>
				<threshold> 0.015625 </threshold>
				<split pos="left">
					<feature> 2 </feature>
					<threshold> 0.2578125 </threshold>
					<split pos="left">
						<output> 0.15616045892238617 </output>
					</split>
					<split pos="right">
						<output> 0.3501449227333069 </output>
					</split>
				</split>
				<split pos="right">
					<feature> 1 </feature>
					<threshold> 0.0390625 </threshold>
					<split pos="left">
						<output> 0.12378259748220444 </output>
					</split>
					<split pos="right">
						<feature> 10 </feature>
						<threshold> 0.8333334 </threshold>
						<split pos="left">
							<output> 0.24125640094280243 </output>
						</split>
						<split pos="right">
							<feature> 1 </feature>
							<threshold> 0.21484375 </threshold>
							<split pos="left">
								<output> 0.3464367687702179 </output>
							</split>
							<split pos="right">
								<output> 0.525296688079834 </output>
							</split>
						</split>
					</split>
				</split>
			</split>
			<split pos="right">
				<feature> 9 </feature>
				<threshold> 0.17578125 </threshold>
				<split pos="left">
					<feature> 7 </feature>
					<threshold> 0.00390625 </threshold>
					<split pos="left">
						<output> 0.28474247455596924 </output>
					</split>
					<split pos="right">
						<feature> 12 </feature>
						<threshold> 0.01171875 </threshold>
						<split pos="left">
							<output> 0.34824779629707336 </output>
						</split>
						<split pos="right">
							<output> 0.7142221927642822 </output>
						</split>
					</split>
				</split>
				<split pos="right">
					<output> 0.6132276654243469 </output>
				</split>
			</split>
		</split>
	</tree>
</ensemble>

<ensemble>
	<tree id="1" weight="0.1">
		<split>
			<feature> 11 </feature>
			<threshold> 0.0 </threshold>
			<split pos="left">
				<feature> 12 </feature>
				<threshold> 0.01953125 </threshold>
				<split pos="left">
					<feature> 5 </feature>
					<threshold> 0.00390625 </threshold>
					<split pos="left">
						<output> 0.23293767869472504 </output>
					</split>
					<split pos="right">
						<feature> 2 </feature>
						<threshold> 0.13671875 </threshold>
						<split pos="left">
							<output> 0.1299469918012619 </output>
						</split>
						<split pos="right">
							<output> 0.24411463737487793 </output>
						</split>
					</split>
				</split>
				<split pos="right">
					<feature> 10 </feature>
					<threshold> 0.0 </threshold>
					<split pos="left">
						<output> 0.6329113841056824 </output>
					</split>
					<split pos="right">
						<feature> 1 </feature>
						<threshold> 0.0390625 </threshold>
						<split pos="left">
							<output> 0.25822168588638306 </output>
						</split>
						<split pos="right">
							<feature> 12 </feature>
							<threshold> 0.23828125 </threshold>
							<split pos="left">
								<output> 0.4357086420059204 </output>
							</split>
							<split pos="right">
								<output> 0.5972602963447571 </output>
							</split>
						</split>
					</split>
				</split>
			</split>
			<split pos="right">
				<feature> 12 </feature>
				<threshold> 0.01171875 </threshold>
				<split pos="left">
					<feature> 8 </feature>
					<threshold> 0.171875 </threshold>
					<split pos="left">
						<output> 0.27600720524787903 </output>
					</split>
					<split pos="right">
						<output> 0.3959899842739105 </output>
					</split>
				</split>
				<split pos="right">
					<output> 0.6913183331489563 </output>
				</split>
			</split>
		</split>
	</tree>
</ensemble>

<ensemble>
	<tree id="1" weight="0.1">
		<split>
			<feature> 10 </feature>
			<threshold> 0.8000001 </threshold>
			<split pos="left">
				<feature> 12 </feature>
				<threshold> 0.0 </threshold>
				<split pos="left">
					<feature> 4 </feature>
					<threshold> 0.109375 </threshold>
					<split pos="left">
						<feature> 8 </feature>
						<threshold> 0.8046875 </threshold>
						<split pos="left">
							<feature> 7 </feature>
							<threshold> 0.2265625 </threshold>
							<split pos="left">
								<feature> 10 </feature>
								<threshold> 0.5555556 </threshold>
								<split pos="left">
									<output> 0.1475481539964676 </output>
								</split>
								<split pos="right">
									<output> 0.192074254155159 </output>
								</split>
							</split>
							<split pos="right">
								<output> 0.09599447250366211 </output>
							</split>
						</split>
						<split pos="right">
							<output> 0.2346041053533554 </output>
						</split>
					</split>
					<split pos="right">
						<output> 0.3338377773761749 </output>
					</split>
				</split>
				<split pos="right">
					<output> 0.82356196641922 </output>
				</split>
			</split>
			<split pos="right">
				<feature> 4 </feature>
				<threshold> 0.046875 </threshold>
				<split pos="left">
					<feature> 2 </feature>
					<threshold> 0.1328125 </threshold>
					<split pos="left">
						<feature> 9 </feature>
						<threshold> 0.06640625 </threshold>
						<split pos="left">
							<output> 0.1917647123336792 </output>
						</split>
						<split pos="right">
							<output> 0.2856851816177368 </output>
						</split>
					</split>
					<split pos="right">
						<output> 0.4520895779132843 </output>
					</split>
				</split>
				<split pos="right">
					<output> 0.5884109735488892 </output>
				</split>
			</split>
		</split>
	</tree>
</ensemble>

<ensemble>
	<tree id="1" weight="0.1">
		<split>
			<feature> 4 </feature>
			<threshold> 0.0859375 </threshold>
			<split pos="left">
				<feature> 5 </feature>
				<threshold> 0.99609375 </threshold>
				<split pos="left">
					<feature> 2 </feature>
					<threshold> 0.04296875 </threshold>
					<split pos="left">
						<output> 0.13294173777103424 </output>
					</split>
					<split pos="right">
						<feature> 2 </feature>
						<threshold> 0.1171875 </threshold>
						<split pos="left">
							<output> 0.2449125349521637 </output>
						</split>
						<split pos="right">
							<feature> 8 </feature>
							<threshold> 0.34765625 </threshold>
							<split pos="left">
								<feature> 9 </feature>
								<threshold> 0.359375 </threshold>
								<split pos="left">
									<output> 0.28582173585891724 </output>
								</split>
								<split pos="right">
									<output> 0.42407408356666565 </output>
								</split>
							</split>
							<split pos="right">
								<output> 0.41307029128074646 </output>
							</split>
						</split>
					</split>
				</split>
				<split pos="right">
					<output> 0.4330708682537079 </output>
				</split>
			</split>
			<split pos="right">
				<feature> 10 </feature>
				<threshold> 0.0 </threshold>
				<split pos="left">
					<output> 0.7923763394355774 </output>
				</split>
				<split pos="right">
					<feature> 5 </feature>
					<threshold> 0.0078125 </threshold>
					<split pos="left">
						<output> 0.5205099582672119 </output>
					</split>
					<split pos="right">
						<feature> 9 </feature>
						<threshold> 0.30859375 </threshold>
						<split pos="left">
							<output> 0.3556459844112396 </output>
						</split>
						<split pos="right">
							<output> 0.5112960934638977 </output>
						</split>
					</split>
				</split>
			</split>
		</split>
	</tree>
</ensemble>

<ensemble>
	<tree id="1" weight="0.1">
		<split>
			<feature> 12 </feature>
			<threshold> 0.015625 </threshold>
			<split pos="left">
				<feature> 11 </feature>
				<threshold> 0.3333333 </threshold>
				<split pos="left">
					<feature> 2 </feature>
					<threshold> 0.125 </threshold>
					<split pos="left">
						<feature> 7 </feature>
						<threshold> 0.33984375 </threshold>
						<split pos="left">
							<output> 0.1531464010477066 </output>
						</split>
						<split pos="right">
							<output> 0.08251996338367462 </output>
						</split>
					</split>
					<split pos="right">
						<output> 0.25531914830207825 </output>
					</split>
				</split>
				<split pos="right">
					<output> 0.3483209013938904 </output>
				</split>
			</split>
			<split pos="right">
				<feature> 8 </feature>
				<threshold> 0.5703125 </threshold>
				<split pos="left">
					<feature> 4 </feature>
					<threshold> 0.0703125 </threshold>
					<split pos="left">
						<feature> 8 </feature>
						<threshold> 0.03515625 </threshold>
						<split pos="left">
							<output> 0.4364820718765259 </output>
						</split>
						<split pos="right">
							<feature> 11 </feature>
							<threshold> 0.5 </threshold>
							<split pos="left">
								<feature> 5 </feature>
								<threshold> 0.0546875 </threshold>
								<split pos="left">
									<output> 0.31237202882766724 </output>
								</split>
								<split pos="right">
									<output> 0.3848211169242859 </output>
								</split>
							</split>
							<split pos="right">
								<output> 0.1607142835855484 </output>
							</split>
						</split>
					</split>
					<split pos="right">
						<output> 0.6348422765731812 </output>
					</split>
				</split>
				<split pos="right">
					<output> 0.5556051731109619 </output>
				</split>
			</split>
		</split>
	</tree>
</ensemble>

<ensemble>
	<tree id="1" weight="0.1">
		<split>
			<feature> 2 </feature>
			<threshold> 0.046875 </threshold>
			<split pos="left">
				<feature> 3 </feature>
				<threshold> 0.0859375 </threshold>
				<split pos="left">
					<output> 0.14910262823104858 </output>
				</split>
				<split pos="right">
					<output> 0.5179855823516846 </output>
				</split>
			</split>
			<split pos="right">
				<feature> 11 </feature>
				<threshold> 0.5 </threshold>
				<split pos="left">
					<feature> 10 </feature>
					<threshold> 0.9 </threshold>
					<split pos="left">
						<feature> 7 </feature>
						<threshold> 0.06640625 </threshold>
						<split pos="left">
							<output> 0.2253938615322113 </output>
						</split>
						<split pos="right">
							<output> 0.34004834294319153 </output>
						</split>
					</split>
					<split pos="right">
						<feature> 11 </feature>
						<threshold> 0.3333333 </threshold>
						<split pos="left">
							<feature> 2 </feature>
							<threshold> 0.1953125 </threshold>
							<split pos="left">
								<output> 0.35435667634010315 </output>
							</split>
							<split pos="right">
								<output> 0.4777914881706238 </output>
							</split>
						</split>
						<split pos="right">
							<output> 0.5718540549278259 </output>
						</split>
					</split>
				</split>
				<split pos="right">
					<feature> 5 </feature>
					<threshold> 0.8203125 </threshold>
					<split pos="left">
						<feature> 3 </feature>
						<threshold> 0.08203125 </threshold>
						<split pos="left">
							<output> 0.21481481194496155 </output>
						</split>
						<split pos="right">
							<output> 0.5726585388183594 </output>
						</split>
					</split>
					<split pos="right">
						<output> 0.29729729890823364 </output>
					</split>
				</split>
			</split>
		</split>
	</tree>
</ensemble>

<ensemble>
	<tree id="1" weight="0.1">
		<split>
			<feature> 4 </feature>
			<threshold> 0.0 </threshold>
			<split pos="left">
				<feature> 8 </feature>
				<threshold> 0.09375 </threshold>
				<split pos="left">
					<output> 0.1935674250125885 </output>
				</split>
				<split pos="right">
					<feature> 12 </feature>
					<threshold> 0.00390625 </threshold>
					<split pos="left">
						<feature> 1 </feature>
						<threshold> 0.0546875 </threshold>
						<split pos="left">
							<output> 0.10652557015419006 </output>
						</split>
						<split pos="right">
							<feature> 1 </feature>
							<threshold> 0.14453125 </threshold>
							<split pos="left">
								<output> 0.1944875717163086 </output>
							</split>
							<split pos="right">
								<output> 0.2794976532459259 </output>
							</split>
						</split>
					</split>
					<split pos="right">
						<feature> 1 </feature>
						<threshold> 0.08984375 </threshold>
						<split pos="left">
							<output> 0.2870787978172302 </output>
						</split>
						<split pos="right">
							<feature> 8 </feature>
							<threshold> 0.59765625 </threshold>
							<split pos="left">
								<output> 0.45405861735343933 </output>
							</split>
							<split pos="right">
								<output> 0.6191677451133728 </output>
							</split>
						</split>
					</split>
				</split>
			</split>
			<split pos="right">
				<feature> 7 </feature>
				<threshold> 0.0859375 </threshold>
				<split pos="left">
					<feature> 11 </feature>
					<threshold> 0.5 </threshold>
					<split pos="left">
						<output> 0.3380884528160095 </output>
					</split>
					<split pos="right">
						<output> 0.48301708698272705 </output>
					</split>
				</split>
				<split pos="right">
					<output> 0.6652325987815857 </output>
				</split>
			</split>
		</split>
	</tree>
</ensemble>

<ensemble>
	<tree id="1" weight="0.1">
		<split>
			<feature> 11 </feature>
			<threshold> 0.25 </threshold>
			<split pos="left">
				<feature> 12 </feature>
				<threshold> 0.00390625 </threshold>
				<split pos="left">
					<feature> 7 </feature>
					<threshold> 0.1484375 </threshold>
					<split pos="left">
						<feature> 5 </feature>
						<threshold> 0.99609375 </threshold>
						<split pos="left">
							<feature> 2 </feature>
							<threshold> 0.12890625 </threshold>
							<split pos="left">
								<output> 0.12354493141174316 </output>
							</split>
							<split pos="right">
								<output> 0.25918129086494446 </output>
							</split>
						</split>
						<split pos="right">
							<output> 0.3209109604358673 </output>
						</split>
					</split>
					<split pos="right">
						<output> 0.1325782835483551 </output>
					</split>
				</split>
				<split pos="right">
					<feature> 9 </feature>
					<threshold> 0.02734375 </threshold>
					<split pos="left">
						<output> 0.2601880729198456 </output>
					</split>
					<split pos="right">
						<feature> 7 </feature>
						<threshold> 0.0234375 </threshold>
						<split pos="left">
							<output> 0.31151241064071655 </output>
						</split>
						<split pos="right">
							<feature> 5 </feature>
							<threshold> 0.45703125 </threshold>
							<split pos="left">
								<output> 0.38425999879837036 </output>
							</split>
							<split pos="right">
								<output> 0.5378151535987854 </output>
							</split>
						</split>
					</split>
				</split>
			</split>
			<split pos="right">
				<feature> 7 </feature>
				<threshold> 0.01953125 </threshold>
				<split pos="left">
					<output> 0.38785046339035034 </output>
				</split>
				<split pos="right">
					<output> 0.6248871684074402 </output>
				</split>
			</split>
		</split>
	</tree>
</ensemble>

<ensemble>
	<tree id="1" weight="0.1">
		<split>
			<feature> 3 </feature>
			<threshold> 0.0 </threshold>
			<split pos="left">
				<feature> 2 </feature>
				<threshold> 0.0625 </threshold>
				<split pos="left">
					<feature> 7 </feature>
					<threshold> 0.04296875 </threshold>
					<split pos="left">
						<output> 0.12410879135131836 </output>
					</split>
					<split pos="right">
						<feature> 1 </feature>
						<threshold> 0.03125 </threshold>
						<split pos="left">
							<output> 0.16608713567256927 </output>
						</split>
						<split pos="right">
							<output> 0.2731843590736389 </output>
						</split>
					</split>
				</split>
				<split pos="right">
					<feature> 9 </feature>
					<threshold> 0.09765625 </threshold>
					<split pos="left">
						<feature> 12 </feature>
						<threshold> 0.07421875 </threshold>
						<split pos="left">
							<output> 0.2401919811964035 </output>
						</split>
						<split pos="right">
							<output> 0.45514222979545593 </output>
						</split>
					</split>
					<split pos="right">
						<feature> 10 </feature>
						<threshold> 0.8 </threshold>
						<split pos="left">
							<output> 0.26141512393951416 </output>
						</split>
						<split pos="right">
							<output> 0.42237618565559387 </output>
						</split>
					</split>
				</split>
			</split>
			<split pos="right">
				<feature> 9 </feature>
				<threshold> 0.171875 </threshold>
				<split pos="left">
					<feature> 10 </feature>
					<threshold> 0.8333334 </threshold>
					<split pos="left">
						<output> 0.365177184343338 </output>
					</split>
					<split pos="right">
						<output> 0.5618886947631836 </output>
					</split>
				</split>
				<split pos="right">
					<output> 0.6383442282676697 </output>
				</split>
			</split>
		</split>
	</tree>
</ensemble>

<ensemble>
	<tree id="1" weight="0.1">
		<split>
			<feature> 10 </feature>
			<threshold> 0.8333334 </threshold>
			<split pos="left">
				<feature> 4 </feature>
				<threshold> 0.1015625 </threshold>
				<split pos="left">
					<feature> 2 </feature>
					<threshold> 0.0546875 </threshold>
					<split pos="left">
						<output> 0.14416693150997162 </output>
					</split>
					<split pos="right">
						<feature> 12 </feature>
						<threshold> 0.0 </threshold>
						<split pos="left">
							<output> 0.21882352232933044 </output>
						</split>
						<split pos="right">
							<output> 0.700276255607605 </output>
						</split>
					</split>
				</split>
				<split pos="right">
					<output> 0.42625683546066284 </output>
				</split>
			</split>
			<split pos="right">
				<feature> 2 </feature>
				<threshold> 0.125 </threshold>
				<split pos="left">
					<feature> 3 </feature>
					<threshold> 0.046875 </threshold>
					<split pos="left">
						<feature> 7 </feature>
						<threshold> 0.03125 </threshold>
						<split pos="left">
							<output> 0.21943320333957672 </output>
						</split>
						<split pos="right">
							<output> 0.28715699911117554 </output>
						</split>
					</split>
					<split pos="right">
						<output> 0.5765395760536194 </output>
					</split>
				</split>
				<split pos="right">
					<feature> 3 </feature>
					<threshold> 0.10546875 </threshold>
					<split pos="left">
						<feature> 7 </feature>
						<threshold> 0.328125 </threshold>
						<split pos="left">
							<output> 0.41251900792121887 </output>
						</split>
						<split pos="right">
							<output> 0.6116504669189453 </output>
						</split>
					</split>
					<split pos="right">
						<output> 0.6221963167190552 </output>
					</split>
				</split>
			</split>
		</split>
	</tree>
</ensemble>

<ensemble>
	<tree id="1" weight="0.1">
		<split>
			<feature> 3 </feature>
			<threshold> 0.09765625 </threshold>
			<split pos="left">
				<feature> 4 </feature>
				<threshold> 0.046875 </threshold>
				<split pos="left">
					<feature> 7 </feature>
					<threshold> 0.046875 </threshold>
					<split pos="left">
						<feature> 12 </feature>
						<threshold> 0.00390625 </threshold>
						<split pos="left">
							<feature> 1 </feature>
							<threshold> 0.17578125 </threshold>
							<split pos="left">
								<output> 0.1392301321029663 </output>
							</split>
							<split pos="right">
								<output> 0.2612817585468292 </output>
							</split>
						</split>
						<split pos="right">
							<output> 0.33264249563217163 </output>
						</split>
					</split>
					<split pos="right">
						<feature> 12 </feature>
						<threshold> 0.05078125 </threshold>
						<split pos="left">
							<output> 0.1688196063041687 </output>
						</split>
						<split pos="right">
							<feature> 10 </feature>
							<threshold> 0.0 </threshold>
							<split pos="left">
								<output> 0.7853107452392578 </output>
							</split>
							<split pos="right">
								<output> 0.3918115794658661 </output>
							</split>
						</split>
					</split>
				</split>
				<split pos="right">
					<output> 0.3703041076660156 </output>
				</split>
			</split>
			<split pos="right">
				<feature> 5 </feature>
				<threshold> 0.08203125 </threshold>
				<split pos="left">
					<feature> 8 </feature>
					<threshold> 0.13671875 </threshold>
					<split pos="left">
						<output> 0.5077149271965027 </output>
					</split>
					<split pos="right">
						<output> 0.6007827520370483 </output>
					</split>
				</split>
				<split pos="right">
					<output> 0.47462770342826843 </output>
				</split>
			</split>
		</split>
	</tree>
</ensemble>

<ensemble>
	<tree id="1" weight="0.1">
		<split>
			<feature> 3 </feature>
			<threshold> 0.08203125 </threshold>
			<split pos="left">
				<feature> 5 </feature>
				<threshold> 0.00390625 </threshold>
				<split pos="left">
					<feature> 2 </feature>
					<threshold> 0.03125 </threshold>
					<split pos="left">
						<output> 0.13747645914554596 </output>
					</split>
					<split pos="right">
						<output> 0.33204135298728943 </output>
					</split>
				</split>
				<split pos="right">
					<feature> 10 </feature>
					<threshold> 0.8333334 </threshold>
					<split pos="left">
						<feature> 2 </feature>
						<threshold> 0.13671875 </threshold>
						<split pos="left">
							<output> 0.11857102811336517 </output>
						</split>
						<split pos="right">
							<output> 0.25838029384613037 </output>
						</split>
					</split>
					<split pos="right">
						<feature> 2 </feature>
						<threshold> 0.109375 </threshold>
						<split pos="left">
							<output> 0.2270447164773941 </output>
						</split>
						<split pos="right">
							<output> 0.36944442987442017 </output>
						</split>
					</split>
				</split>
			</split>
			<split pos="right">
				<feature> 12 </feature>
				<threshold> 0.01171875 </threshold>
				<split pos="left">
					<feature> 10 </feature>
					<threshold> 0.11111113 </threshold>
					<split pos="left">
						<output> 0.5494071245193481 </output>
					</split>
					<split pos="right">
						<output> 0.30150753259658813 </output>
					</split>
				</split>
				<split pos="right">
					<feature> 2 </feature>
					<threshold> 0.36328125 </threshold>
					<split pos="left">
						<output> 0.6808781623840332 </output>
					</split>
					<split pos="right">
						<output> 0.8012048006057739 </output>
					</split>
				</split>
			</split>
		</split>
	</tree>
</ensemble>

<ensemble>
	<tree id="1" weight="0.1">
		<split>
			<feature> 4 </feature>
			<threshold> 0.046875 </threshold>
			<split pos="left">
				<feature> 12 </feature>
				<threshold> 0.0390625 </threshold>
				<split pos="left">
					<feature> 7 </feature>
					<threshold> 0.22265625 </threshold>
					<split pos="left">
						<feature> 2 </feature>
						<threshold> 0.125 </threshold>
						<split pos="left">
							<feature> 2 </feature>
							<threshold> 0.0546875 </threshold>
							<split pos="left">
								<output> 0.13773517310619354 </output>
							</split>
							<split pos="right">
								<output> 0.19368353486061096 </output>
							</split>
						</split>
						<split pos="right">
							<output> 0.26129698753356934 </output>
						</split>
					</split>
					<split pos="right">
						<output> 0.1355002075433731 </output>
					</split>
				</split>
				<split pos="right">
					<feature> 2 </feature>
					<threshold> 0.02734375 </threshold>
					<split pos="left">
						<output> 0.2343234270811081 </output>
					</split>
					<split pos="right">
						<feature> 2 </feature>
						<threshold> 0.359375 </threshold>
						<split pos="left">
							<output> 0.45575958490371704 </output>
						</split>
						<split pos="right">
							<output> 0.6094339489936829 </output>
						</split>
					</split>
				</split>
			</split>
			<split pos="right">
				<feature> 11 </feature>
				<threshold> 0.5 </threshold>
				<split pos="left">
					<output> 0.40330442786216736 </output>
				</split>
				<split pos="right">
					<feature> 7 </feature>
					<threshold> 0.01171875 </threshold>
					<split pos="left">
						<output> 0.3400537669658661 </output>
					</split>
					<split pos="right">
						<output> 0.5819886326789856 </output>
					</split>
				</split>
			</split>
		</split>
	</tree>
</ensemble>

<ensemble>
	<tree id="1" weight="0.1">
		<split>
			<feature> 12 </feature>
			<threshold> 0.0546875 </threshold>
			<split pos="left">
				<feature> 2 </feature>
				<threshold> 0.0703125 </threshold>
				<split pos="left">
					<feature> 11 </feature>
					<threshold> 0.5 </threshold>
					<split pos="left">
						<output> 0.13599246740341187 </output>
					</split>
					<split pos="right">
						<output> 0.42942944169044495 </output>
					</split>
				</split>
				<split pos="right">
					<feature> 11 </feature>
					<threshold> 0.25 </threshold>
					<split pos="left">
						<feature> 12 </feature>
						<threshold> 0.00390625 </threshold>
						<split pos="left">
							<feature> 9 </feature>
							<threshold> 0.6015625 </threshold>
							<split pos="left">
								<output> 0.23054033517837524 </output>
							</split>
							<split pos="right">
								<output> 0.13545817136764526 </output>
							</split>
						</split>
						<split pos="right">
							<output> 0.31812524795532227 </output>
						</split>
					</split>
					<split pos="right">
						<feature> 2 </feature>
						<threshold> 0.375 </threshold>
						<split pos="left">
							<output> 0.3409220278263092 </output>
						</split>
						<split pos="right">
							<output> 0.47236180305480957 </output>
						</split>
					</split>
				</split>
			</split>
			<split pos="right">
				<feature> 11 </feature>
				<threshold> 0.5 </threshold>
				<split pos="left">
					<feature> 1 </feature>
					<threshold> 0.08984375 </threshold>
					<split pos="left">
						<output> 0.2846692204475403 </output>
					</split>
					<split pos="right">
						<output> 0.5313382148742676 </output>
					</split>
				</split>
				<split pos="right">
					<output> 0.7737870216369629 </output>
				</split>
			</split>
		</split>
	</tree>
</ensemble>

<ensemble>
	<tree id="1" weight="0.1">
		<split>
			<feature> 11 </feature>
			<threshold> 0.5 </threshold>
			<split pos="left">
				<feature> 1 </feature>
				<threshold> 0.1015625 </threshold>
				<split pos="left">
					<feature> 1 </feature>
					<threshold> 0.03125 </threshold>
					<split pos="left">
						<output> 0.13654495775699615 </output>
					</split>
					<split pos="right">
						<output> 0.24170692265033722 </output>
					</split>
				</split>
				<split pos="right">
					<feature> 12 </feature>
					<threshold> 0.015625 </threshold>
					<split pos="left">
						<feature> 3 </feature>
						<threshold> 0.2109375 </threshold>
						<split pos="left">
							<feature> 2 </feature>
							<threshold> 0.328125 </threshold>
							<split pos="left">
								<output> 0.23507539927959442 </output>
							</split>
							<split pos="right">
								<output> 0.3256484270095825 </output>
							</split>
						</split>
						<split pos="right">
							<output> 0.3622291088104248 </output>
						</split>
					</split>
					<split pos="right">
						<feature> 1 </feature>
						<threshold> 0.44140625 </threshold>
						<split pos="left">
							<output> 0.4507220685482025 </output>
						</split>
						<split pos="right">
							<output> 0.6598492860794067 </output>
						</split>
					</split>
				</split>
			</split>
			<split pos="right">
				<feature> 10 </feature>
				<threshold> 0.0 </threshold>
				<split pos="left">
					<output> 0.7716794610023499 </output>
				</split>
				<split pos="right">
					<feature> 5 </feature>
					<threshold> 0.0390625 </threshold>
					<split pos="left">
						<output> 0.5050251483917236 </output>
					</split>
					<split pos="right">
						<output> 0.6152989268302917 </output>
					</split>
				</split>
			</split>
		</split>
	</tree>
</ensemble>

<ensemble>
	<tree id="1" weight="0.1">
		<split>
			<feature> 1 </feature>
			<threshold> 0.0546875 </threshold>
			<split pos="left">
				<feature> 12 </feature>
				<threshold> 0.00390625 </threshold>
				<split pos="left">
					<output> 0.11753398180007935 </output>
				</split>
				<split pos="right">
					<output> 0.2845838963985443 </output>
				</split>
			</split>
			<split pos="right">
				<feature> 10 </feature>
				<threshold> 0.0 </threshold>
				<split pos="left">
					<output> 0.604080080986023 </output>
				</split>
				<split pos="right">
					<feature> 3 </feature>
					<threshold> 0.140625 </threshold>
					<split pos="left">
						<feature> 12 </feature>
						<threshold> 0.0078125 </threshold>
						<split pos="left">
							<feature> 1 </feature>
							<threshold> 0.17578125 </threshold>
							<split pos="left">
								<output> 0.1692267656326294 </output>
							</split>
							<split pos="right">
								<output> 0.25053417682647705 </output>
							</split>
						</split>
						<split pos="right">
							<feature> 1 </feature>
							<threshold> 0.25 </threshold>
							<split pos="left">
								<feature> 8 </feature>
								<threshold> 0.62109375 </threshold>
								<split pos="left">
									<output> 0.34952038526535034 </output>
								</split>
								<split pos="right">
									<output> 0.49086758494377136 </output>
								</split>
							</split>
							<split pos="right">
								<output> 0.5395683646202087 </output>
							</split>
						</split>
					</split>
					<split pos="right">
						<feature> 10 </feature>
						<threshold> 0.8 </threshold>
						<split pos="left">
							<output> 0.28122955560684204 </output>
						</split>
						<split pos="right">
							<output> 0.6287078261375427 </output>
						</split>
					</split>
				</split>
			</split>
		</split>
	</tree>
</ensemble>

<ensemble>
	<tree id="1" weight="0.1">
		<split>
			<feature> 4 </feature>
			<threshold> 0.09375 </threshold>
			<split pos="left">
				<feature> 12 </feature>
				<threshold> 0.0078125 </threshold>
				<split pos="left">
					<feature> 1 </feature>
					<threshold> 0.0546875 </threshold>
					<split pos="left">
						<output> 0.11342069506645203 </output>
					</split>
					<split pos="right">
						<feature> 10 </feature>
						<threshold> 0.5 </threshold>
						<split pos="left">
							<output> 0.18202897906303406 </output>
						</split>
						<split pos="right">
							<output> 0.24359260499477386 </output>
						</split>
					</split>
				</split>
				<split pos="right">
					<feature> 12 </feature>
					<threshold> 0.2109375 </threshold>
					<split pos="left">
						<feature> 2 </feature>
						<threshold> 0.125 </threshold>
						<split pos="left">
							<output> 0.26536160707473755 </output>
						</split>
						<split pos="right">
							<output> 0.4739178717136383 </output>
						</split>
					</split>
					<split pos="right">
						<output> 0.4715540409088135 </output>
					</split>
				</split>
			</split>
			<split pos="right">
				<feature> 10 </feature>
				<threshold> 0.9 </threshold>
				<split pos="left">
					<feature> 12 </feature>
					<threshold> 0.00390625 </threshold>
					<split pos="left">
						<output> 0.34245580434799194 </output>
					</split>
					<split pos="right">
						<output> 0.7591397762298584 </output>
					</split>
				</split>
				<split pos="right">
					<feature> 1 </feature>
					<threshold> 0.4453125 </threshold>
					<split pos="left">
						<output> 0.5967841744422913 </output>
					</split>
					<split pos="right">
						<output> 0.8139784932136536 </output>
					</split>
				</split>
			</split>
		</split>
	</tree>
</ensemble>

<ensemble>
	<tree id="1" weight="0.1">
		<split>
			<feature> 12 </feature>
			<threshold> 0.015625 </threshold>
			<split pos="left">
				<feature> 11 </feature>
				<threshold> 0.25 </threshold>
				<split pos="left">
					<feature> 1 </feature>
					<threshold> 0.13671875 </threshold>
					<split pos="left">
						<feature> 7 </feature>
						<threshold> 0.33984375 </threshold>
						<split pos="left">
							<output> 0.1436760574579239 </output>
						</split>
						<split pos="right">
							<output> 0.08383750915527344 </output>
						</split>
					</split>
					<split pos="right">
						<output> 0.2731570899486542 </output>
					</split>
				</split>
				<split pos="right">
					<feature> 9 </feature>
					<threshold> 0.1796875 </threshold>
					<split pos="left">
						<output> 0.3680380582809448 </output>
					</split>
					<split pos="right">
						<output> 0.4721311330795288 </output>
					</split>
				</split>
			</split>
			<split pos="right">
				<feature> 2 </feature>
				<threshold> 0.1328125 </threshold>
				<split pos="left">
					<feature> 5 </feature>
					<threshold> 0.01953125 </threshold>
					<split pos="left">
						<output> 0.43438416719436646 </output>
					</split>
					<split pos="right">
						<output> 0.32189658284187317 </output>
					</split>
				</split>
				<split pos="right">
					<feature> 2 </feature>
					<threshold> 0.43359375 </threshold>
					<split pos="left">
						<feature> 3 </feature>
						<threshold> 0.140625 </threshold>
						<split pos="left">
							<output> 0.44441068172454834 </output>
						</split>
						<split pos="right">
							<output> 0.7232640385627747 </output>
						</split>
					</split>
					<split pos="right">
						<output> 0.7410772442817688 </output>
					</split>
				</split>
			</split>
		</split>
	</tree>
</ensemble>

<ensemble>
	<tree id="1" weight="0.1">
		<split>
			<feature> 4 </feature>
			<threshold> 0.0 </threshold>
			<split pos="left">
				<feature> 10 </feature>
				<threshold> 0.8333334 </threshold>
				<split pos="left">
					<feature> 12 </feature>
					<threshold> 0.0 </threshold>
					<split pos="left">
						<feature> 10 </feature>
						<threshold> 0.44444448 </threshold>
						<split pos="left">
							<output> 0.14124833047389984 </output>
						</split>
						<split pos="right">
							<output> 0.18082723021507263 </output>
						</split>
					</split>
					<split pos="right">
						<output> 0.5144596695899963 </output>
					</split>
				</split>
				<split pos="right">
					<feature> 2 </feature>
					<threshold> 0.109375 </threshold>
					<split pos="left">
						<feature> 2 </feature>
						<threshold> 0.03125 </threshold>
						<split pos="left">
							<output> 0.1541353315114975 </output>
						</split>
						<split pos="right">
							<output> 0.2836484909057617 </output>
						</split>
					</split>
					<split pos="right">
						<feature> 7 </feature>
						<threshold> 0.015625 </threshold>
						<split pos="left">
							<output> 0.31282052397727966 </output>
						</split>
						<split pos="right">
							<output> 0.46824225783348083 </output>
						</split>
					</split>
				</split>
			</split>
			<split pos="right">
				<feature> 7 </feature>
				<threshold> 0.015625 </threshold>
				<split pos="left">
					<output> 0.4210176169872284 </output>
				</split>
				<split pos="right">
					<feature> 11 </feature>
					<threshold> 0.6666666 </threshold>
					<split pos="left">
						<output> 0.4252477288246155 </output>
					</split>
					<split pos="right">
						<output> 0.6560437083244324 </output>
					</split>
				</split>
			</split>
		</split>
	</tree>
</ensemble>

<ensemble>
	<tree id="1" weight="0.1">
		<split>
			<feature> 4 </feature>
			<threshold> 0.0859375 </threshold>
			<split pos="left">
				<feature> 10 </feature>
				<threshold> 0.8000001 </threshold>
				<split pos="left">
					<feature> 10 </feature>
					<threshold> 0.0 </threshold>
					<split pos="left">
						<output> 0.2207491546869278 </output>
					</split>
					<split pos="right">
						<output> 0.14826136827468872 </output>
					</split>
				</split>
				<split pos="right">
					<feature> 2 </feature>
					<threshold> 0.109375 </threshold>
					<split pos="left">
						<feature> 3 </feature>
						<threshold> 0.046875 </threshold>
						<split pos="left">
							<output> 0.22258564829826355 </output>
						</split>
						<split pos="right">
							<output> 0.42718446254730225 </output>
						</split>
					</split>
					<split pos="right">
						<feature> 7 </feature>
						<threshold> 0.015625 </threshold>
						<split pos="left">
							<output> 0.2787967622280121 </output>
						</split>
						<split pos="right">
							<output> 0.43053337931632996 </output>
						</split>
					</split>
				</split>
			</split>
			<split pos="right">
				<feature> 11 </feature>
				<threshold> 0.5 </threshold>
				<split pos="left">
					<output> 0.35727018117904663 </output>
				</split>
				<split pos="right">
					<feature> 9 </feature>
					<threshold> 0.296875 </threshold>
					<split pos="left">
						<feature> 7 </feature>
						<threshold> 0.00390625 </threshold>
						<split pos="left">
							<output> 0.26131385564804077 </output>
						</split>
						<split pos="right">
							<output> 0.5795966982841492 </output>
						</split>
					</split>
					<split pos="right">
						<output> 0.7232652902603149 </output>
					</split>
				</split>
			</split>
		</split>
	</tree>
</ensemble>

<ensemble>
	<tree id="1" weight="0.1">
		<split>
			<feature> 3 </feature>
			<threshold> 0.09765625 </threshold>
			<split pos="left">
				<feature> 1 </feature>
				<threshold> 0.0546875 </threshold>
				<split pos="left">
					<output> 0.1397569477558136 </output>
				</split>
				<split pos="right">
					<feature> 2 </feature>
					<threshold> 0.14453125 </threshold>
					<split pos="left">
						<feature> 12 </feature>
						<threshold> 0.0390625 </threshold>
						<split pos="left">
							<output> 0.18835081160068512 </output>
						</split>
						<split pos="right">
							<output> 0.3714011609554291 </output>
						</split>
					</split>
					<split pos="right">
						<feature> 7 </feature>
						<threshold> 0.22265625 </threshold>
						<split pos="left">
							<feature> 12 </feature>
							<threshold> 0.0234375 </threshold>
							<split pos="left">
								<output> 0.2733381688594818 </output>
							</split>
							<split pos="right">
								<output> 0.4432656764984131 </output>
							</split>
						</split>
						<split pos="right">
							<output> 0.4936954379081726 </output>
						</split>
					</split>
				</split>
			</split>
			<split pos="right">
				<feature> 8 </feature>
				<threshold> 0.484375 </threshold>
				<split pos="left">
					<feature> 12 </feature>
					<threshold> 0.0234375 </threshold>
					<split pos="left">
						<feature> 4 </feature>
						<threshold> 0.24609375 </threshold>
						<split pos="left">
							<output> 0.31265509128570557 </output>
						</split>
						<split pos="right">
							<output> 0.39454442262649536 </output>
						</split>
					</split>
					<split pos="right">
						<output> 0.6712698936462402 </output>
					</split>
				</split>
				<split pos="right">
					<output> 0.5994304418563843 </output>
				</split>
			</split>
		</split>
	</tree>
</ensemble>

<ensemble>
	<tree id="1" weight="0.1">
		<split>
			<feature> 12 </feature>
			<threshold> 0.0078125 </threshold>
			<split pos="left">
				<feature> 4 </feature>
				<threshold> 0.09765625 </threshold>
				<split pos="left">
					<feature> 2 </feature>
					<threshold> 0.0390625 </threshold>
					<split pos="left">
						<output> 0.1080273985862732 </output>
					</split>
					<split pos="right">
						<feature> 2 </feature>
						<threshold> 0.1484375 </threshold>
						<split pos="left">
							<output> 0.18706856667995453 </output>
						</split>
						<split pos="right">
							<output> 0.2538699805736542 </output>
						</split>
					</split>
				</split>
				<split pos="right">
					<output> 0.3757196366786957 </output>
				</split>
			</split>
			<split pos="right">
				<feature> 11 </feature>
				<threshold> 0.3333333 </threshold>
				<split pos="left">
					<feature> 4 </feature>
					<threshold> 0.22265625 </threshold>
					<split pos="left">
						<feature> 12 </feature>
						<threshold> 0.0546875 </threshold>
						<split pos="left">
							<output> 0.3272946774959564 </output>
						</split>
						<split pos="right">
							<feature> 2 </feature>
							<threshold> 0.05078125 </threshold>
							<split pos="left">
								<output> 0.2729608118534088 </output>
							</split>
							<split pos="right">
								<output> 0.4567430019378662 </output>
							</split>
						</split>
					</split>
					<split pos="right">
						<output> 0.8191489577293396 </output>
					</split>
				</split>
				<split pos="right">
					<feature> 1 </feature>
					<threshold> 0.37109375 </threshold>
					<split pos="left">
						<output> 0.6240112781524658 </output>
					</split>
					<split pos="right">
						<output> 0.7621951103210449 </output>
					</split>
				</split>
			</split>
		</split>
	</tree>
</ensemble>

<ensemble>
	<tree id="1" weight="0.1">
		<split>
			<feature> 4 </feature>
			<threshold> 0.046875 </threshold>
			<split pos="left">
				<feature> 7 </feature>
				<threshold> 0.01953125 </threshold>
				<split pos="left">
					<feature> 11 </feature>
					<threshold> 0.5 </threshold>
					<split pos="left">
						<output> 0.1842218041419983 </output>
					</split>
					<split pos="right">
						<output> 0.5555555820465088 </output>
					</split>
				</split>
				<split pos="right">
					<feature> 12 </feature>
					<threshold> 0.0078125 </threshold>
					<split pos="left">
						<feature> 5 </feature>
						<threshold> 0.0 </threshold>
						<split pos="left">
							<output> 0.32980599999427795 </output>
						</split>
						<split pos="right">
							<output> 0.14663901925086975 </output>
						</split>
					</split>
					<split pos="right">
						<feature> 10 </feature>
						<threshold> 0.0 </threshold>
						<split pos="left">
							<output> 0.6124469637870789 </output>
						</split>
						<split pos="right">
							<feature> 2 </feature>
							<threshold> 0.15234375 </threshold>
							<split pos="left">
								<output> 0.2469135820865631 </output>
							</split>
							<split pos="right">
								<output> 0.4523542523384094 </output>
							</split>
						</split>
					</split>
				</split>
			</split>
			<split pos="right">
				<feature> 9 </feature>
				<threshold> 0.1796875 </threshold>
				<split pos="left">
					<feature> 7 </feature>
					<threshold> 0.015625 </threshold>
					<split pos="left">
						<output> 0.31425365805625916 </output>
					</split>
					<split pos="right">
						<output> 0.4986080229282379 </output>
					</split>
				</split>
				<split pos="right">
					<output> 0.5410367250442505 </output>
				</split>
			</split>
		</split>
	</tree>
</ensemble>

<ensemble>
	<tree id="1" weight="0.1">
		<split>
			<feature> 4 </feature>
			<threshold> 0.1015625 </threshold>
			<split pos="left">
				<feature> 1 </feature>
				<threshold> 0.05078125 </threshold>
				<split pos="left">
					<feature> 1 </feature>
					<threshold> 0.01171875 </threshold>
					<split pos="left">
						<output> 0.11149154603481293 </output>
					</split>
					<split pos="right">
						<output> 0.1819896250963211 </output>
					</split>
				</split>
				<split pos="right">
					<feature> 10 </feature>
					<threshold> 0.0 </threshold>
					<split pos="left">
						<output> 0.45493561029434204 </output>
					</split>
					<split pos="right">
						<feature> 12 </feature>
						<threshold> 0.03515625 </threshold>
						<split pos="left">
							<feature> 12 </feature>
							<threshold> 0.00390625 </threshold>
							<split pos="left">
								<feature> 1 </feature>
								<threshold> 0.2734375 </threshold>
								<split pos="left">
									<output> 0.16194744408130646 </output>
								</split>
								<split pos="right">
									<output> 0.23644357919692993 </output>
								</split>
							</split>
							<split pos="right">
								<output> 0.2688453197479248 </output>
							</split>
						</split>
						<split pos="right">
							<feature> 2 </feature>
							<threshold> 0.359375 </threshold>
							<split pos="left">
								<output> 0.3530389368534088 </output>
							</split>
							<split pos="right">
								<output> 0.5348837375640869 </output>
							</split>
						</split>
					</split>
				</split>
			</split>
			<split pos="right">
				<feature> 12 </feature>
				<threshold> 0.015625 </threshold>
				<split pos="left">
					<output> 0.3343082070350647 </output>
				</split>
				<split pos="right">
					<output> 0.6149846911430359 </output>
				</split>
			</split>
		</split>
	</tree>
</ensemble>

<ensemble>
	<tree id="1" weight="0.1">
		<split>
			<feature> 3 </feature>
			<threshold> 0.046875 </threshold>
			<split pos="left">
				<feature> 2 </feature>
				<threshold> 0.03515625 </threshold>
				<split pos="left">
					<output> 0.11580116301774979 </output>
				</split>
				<split pos="right">
					<feature> 12 </feature>
					<threshold> 0.00390625 </threshold>
					<split pos="left">
						<output> 0.20802713930606842 </output>
					</split>
					<split pos="right">
						<feature> 9 </feature>
						<threshold> 0.07421875 </threshold>
						<split pos="left">
							<output> 0.3585858643054962 </output>
						</split>
						<split pos="right">
							<feature> 5 </feature>
							<threshold> 0.52734375 </threshold>
							<split pos="left">
								<feature> 2 </feature>
								<threshold> 0.171875 </threshold>
								<split pos="left">
									<output> 0.3749239146709442 </output>
								</split>
								<split pos="right">
									<output> 0.5809151530265808 </output>
								</split>
							</split>
							<split pos="right">
								<output> 0.5976676344871521 </output>
							</split>
						</split>
					</split>
				</split>
			</split>
			<split pos="right">
				<feature> 9 </feature>
				<threshold> 0.21484375 </threshold>
				<split pos="left">
					<feature> 3 </feature>
					<threshold> 0.24609375 </threshold>
					<split pos="left">
						<output> 0.39944392442703247 </output>
					</split>
					<split pos="right">
						<feature> 11 </feature>
						<threshold> 0.5 </threshold>
						<split pos="left">
							<output> 0.40564826130867004 </output>
						</split>
						<split pos="right">
							<output> 0.5608291029930115 </output>
						</split>
					</split>
				</split>
				<split pos="right">
					<output> 0.6315162181854248 </output>
				</split>
			</split>
		</split>
	</tree>
</ensemble>

<ensemble>
	<tree id="1" weight="0.1">
		<split>
			<feature> 11 </feature>
			<threshold> 0.3333333 </threshold>
			<split pos="left">
				<feature> 1 </feature>
				<threshold> 0.03125 </threshold>
				<split pos="left">
					<output> 0.1260441541671753 </output>
				</split>
				<split pos="right">
					<feature> 1 </feature>
					<threshold> 0.14453125 </threshold>
					<split pos="left">
						<feature> 12 </feature>
						<threshold> 0.00390625 </threshold>
						<split pos="left">
							<output> 0.15933120250701904 </output>
						</split>
						<split pos="right">
							<output> 0.31623154878616333 </output>
						</split>
					</split>
					<split pos="right">
						<feature> 12 </feature>
						<threshold> 0.03515625 </threshold>
						<split pos="left">
							<feature> 9 </feature>
							<threshold> 0.0859375 </threshold>
							<split pos="left">
								<output> 0.2885860204696655 </output>
							</split>
							<split pos="right">
								<output> 0.24127906560897827 </output>
							</split>
						</split>
						<split pos="right">
							<output> 0.4905741214752197 </output>
						</split>
					</split>
				</split>
			</split>
			<split pos="right">
				<feature> 12 </feature>
				<threshold> 0.0234375 </threshold>
				<split pos="left">
					<feature> 10 </feature>
					<threshold> 0.11111113 </threshold>
					<split pos="left">
						<output> 0.5140306353569031 </output>
					</split>
					<split pos="right">
						<feature> 2 </feature>
						<threshold> 0.35546875 </threshold>
						<split pos="left">
							<output> 0.3065851032733917 </output>
						</split>
						<split pos="right">
							<output> 0.4179829955101013 </output>
						</split>
					</split>
				</split>
				<split pos="right">
					<output> 0.7360217571258545 </output>
				</split>
			</split>
		</split>
	</tree>
</ensemble>

<ensemble>
	<tree id="1" weight="0.1">
		<split>
			<feature> 11 </feature>
			<threshold> 0.5 </threshold>
			<split pos="left">
				<feature> 12 </feature>
				<threshold> 0.01953125 </threshold>
				<split pos="left">
					<feature> 2 </feature>
					<threshold> 0.07421875 </threshold>
					<split pos="left">
						<output> 0.1230473741889 </output>
					</split>
					<split pos="right">
						<feature> 12 </feature>
						<threshold> 0.0 </threshold>
						<split pos="left">
							<feature> 9 </feature>
							<threshold> 0.37109375 </threshold>
							<split pos="left">
								<output> 0.25829875469207764 </output>
							</split>
							<split pos="right">
								<output> 0.33499377965927124 </output>
							</split>
						</split>
						<split pos="right">
							<output> 0.3334849774837494 </output>
						</split>
					</split>
				</split>
				<split pos="right">
					<feature> 11 </feature>
					<threshold> 0.3333333 </threshold>
					<split pos="left">
						<feature> 1 </feature>
						<threshold> 0.02734375 </threshold>
						<split pos="left">
							<output> 0.1957005262374878 </output>
						</split>
						<split pos="right">
							<feature> 2 </feature>
							<threshold> 0.10546875 </threshold>
							<split pos="left">
								<output> 0.35069191455841064 </output>
							</split>
							<split pos="right">
								<output> 0.44186705350875854 </output>
							</split>
						</split>
					</split>
					<split pos="right">
						<output> 0.6125330924987793 </output>
					</split>
				</split>
			</split>
			<split pos="right">
				<feature> 10 </feature>
				<threshold> 0.8333334 </threshold>
				<split pos="left">
					<output> 0.5192550420761108 </output>
				</split>
				<split pos="right">
					<output> 0.6738839745521545 </output>
				</split>
			</split>
		</split>
	</tree>
</ensemble>

<ensemble>
	<tree id="1" weight="0.1">
		<split>
			<feature> 12 </feature>
			<threshold> 0.00390625 </threshold>
			<split pos="left">
				<feature> 7 </feature>
				<threshold> 0.50390625 </threshold>
				<split pos="left">
					<feature> 1 </feature>
					<threshold> 0.05859375 </threshold>
					<split pos="left">
						<output> 0.10426466166973114 </output>
					</split>
					<split pos="right">
						<feature> 4 </feature>
						<threshold> 0.11328125 </threshold>
						<split pos="left">
							<feature> 10 </feature>
							<threshold> 0.7777778 </threshold>
							<split pos="left">
								<output> 0.1963598132133484 </output>
							</split>
							<split pos="right">
								<output> 0.29362669587135315 </output>
							</split>
						</split>
						<split pos="right">
							<output> 0.3724355697631836 </output>
						</split>
					</split>
				</split>
				<split pos="right">
					<output> 0.09984871745109558 </output>
				</split>
			</split>
			<split pos="right">
				<feature> 3 </feature>
				<threshold> 0.046875 </threshold>
				<split pos="left">
					<feature> 10 </feature>
					<threshold> 0.0 </threshold>
					<split pos="left">
						<output> 0.5997267961502075 </output>
					</split>
					<split pos="right">
						<feature> 1 </feature>
						<threshold> 0.10546875 </threshold>
						<split pos="left">
							<output> 0.2507670223712921 </output>
						</split>
						<split pos="right">
							<output> 0.42755499482154846 </output>
						</split>
					</split>
				</split>
				<split pos="right">
					<feature> 9 </feature>
					<threshold> 0.03125 </threshold>
					<split pos="left">
						<output> 0.32307693362236023 </output>
					</split>
					<split pos="right">
						<output> 0.6543354988098145 </output>
					</split>
				</split>
			</split>
		</split>
	</tree>
</ensemble>

<ensemble>
	<tree id="1" weight="0.1">
		<split>
			<feature> 11 </feature>
			<threshold> 0.0 </threshold>
			<split pos="left">
				<feature> 1 </feature>
				<threshold> 0.05859375 </threshold>
				<split pos="left">
					<feature> 12 </feature>
					<threshold> 0.00390625 </threshold>
					<split pos="left">
						<output> 0.11467617005109787 </output>
					</split>
					<split pos="right">
						<output> 0.26683691143989563 </output>
					</split>
				</split>
				<split pos="right">
					<feature> 12 </feature>
					<threshold> 0.00390625 </threshold>
					<split pos="left">
						<feature> 10 </feature>
						<threshold> 0.40000004 </threshold>
						<split pos="left">
							<output> 0.15884476900100708 </output>
						</split>
						<split pos="right">
							<output> 0.24235029518604279 </output>
						</split>
					</split>
					<split pos="right">
						<feature> 2 </feature>
						<threshold> 0.4296875 </threshold>
						<split pos="left">
							<feature> 5 </feature>
							<threshold> 0.0546875 </threshold>
							<split pos="left">
								<output> 0.3286304175853729 </output>
							</split>
							<split pos="right">
								<output> 0.43689319491386414 </output>
							</split>
						</split>
						<split pos="right">
							<output> 0.5221518874168396 </output>
						</split>
					</split>
				</split>
			</split>
			<split pos="right">
				<feature> 8 </feature>
				<threshold> 0.109375 </threshold>
				<split pos="left">
					<output> 0.4603274464607239 </output>
				</split>
				<split pos="right">
					<feature> 12 </feature>
					<threshold> 0.01171875 </threshold>
					<split pos="left">
						<output> 0.37611180543899536 </output>
					</split>
					<split pos="right">
						<output> 0.705022394657135 </output>
					</split>
				</split>
			</split>
		</split>
	</tree>
</ensemble>

<ensemble>
	<tree id="1" weight="0.1">
		<split>
			<feature> 3 </feature>
			<threshold> 0.0 </threshold>
			<split pos="left">
				<feature> 2 </feature>
				<threshold> 0.0546875 </threshold>
				<split pos="left">
					<feature> 5 </feature>
					<threshold> 0.99609375 </threshold>
					<split pos="left">
						<output> 0.12851007282733917 </output>
					</split>
					<split pos="right">
						<output> 0.28650137782096863 </output>
					</split>
				</split>
				<split pos="right">
					<feature> 10 </feature>
					<threshold> 0.8333334 </threshold>
					<split pos="left">
						<feature> 2 </feature>
						<threshold> 0.171875 </threshold>
						<split pos="left">
							<output> 0.16607660055160522 </output>
						</split>
						<split pos="right">
							<output> 0.2651148736476898 </output>
						</split>
					</split>
					<split pos="right">
						<feature> 7 </feature>
						<threshold> 0.015625 </threshold>
						<split pos="left">
							<output> 0.2669956088066101 </output>
						</split>
						<split pos="right">
							<feature> 1 </feature>
							<threshold> 0.1953125 </threshold>
							<split pos="left">
								<output> 0.3430720269680023 </output>
							</split>
							<split pos="right">
								<output> 0.5017964243888855 </output>
							</split>
						</split>
					</split>
				</split>
			</split>
			<split pos="right">
				<feature> 9 </feature>
				<threshold> 0.1796875 </threshold>
				<split pos="left">
					<feature> 11 </feature>
					<threshold> 0.6666666 </threshold>
					<split pos="left">
						<output> 0.3242473602294922 </output>
					</split>
					<split pos="right">
						<output> 0.48627880215644836 </output>
					</split>
				</split>
				<split pos="right">
					<output> 0.5462270379066467 </output>
				</split>
			</split>
		</split>
	</tree>
</ensemble>

<ensemble>
	<tree id="1" weight="0.1">
		<split>
			<feature> 3 </feature>
			<threshold> 0.046875 </threshold>
			<split pos="left">
				<feature> 3 </feature>
				<threshold> 0.04296875 </threshold>
				<split pos="left">
					<feature> 10 </feature>
					<threshold> 0.8 </threshold>
					<split pos="left">
						<feature> 2 </feature>
						<threshold> 0.1484375 </threshold>
						<split pos="left">
							<feature> 10 </feature>
							<threshold> 0.0 </threshold>
							<split pos="left">
								<output> 0.2194112241268158 </output>
							</split>
							<split pos="right">
								<output> 0.11899115890264511 </output>
							</split>
						</split>
						<split pos="right">
							<output> 0.2899628281593323 </output>
						</split>
					</split>
					<split pos="right">
						<feature> 5 </feature>
						<threshold> 0.4453125 </threshold>
						<split pos="left">
							<feature> 5 </feature>
							<threshold> 0.015625 </threshold>
							<split pos="left">
								<output> 0.3446899950504303 </output>
							</split>
							<split pos="right">
								<output> 0.27775052189826965 </output>
							</split>
						</split>
						<split pos="right">
							<output> 0.4298642575740814 </output>
						</split>
					</split>
				</split>
				<split pos="right">
					<output> 0.0 </output>
				</split>
			</split>
			<split pos="right">
				<feature> 12 </feature>
				<threshold> 0.0 </threshold>
				<split pos="left">
					<output> 0.3334220349788666 </output>
				</split>
				<split pos="right">
					<feature> 12 </feature>
					<threshold> 0.06640625 </threshold>
					<split pos="left">
						<output> 0.591442346572876 </output>
					</split>
					<split pos="right">
						<output> 0.7732869982719421 </output>
					</split>
				</split>
			</split>
		</split>
	</tree>
</ensemble>

<ensemble>
	<tree id="1" weight="0.1">
		<split>
			<feature> 12 </feature>
			<threshold> 0.0078125 </threshold>
			<split pos="left">
				<feature> 2 </feature>
				<threshold> 0.0703125 </threshold>
				<split pos="left">
					<output> 0.12241742759943008 </output>
				</split>
				<split pos="right">
					<feature> 3 </feature>
					<threshold> 0.1015625 </threshold>
					<split pos="left">
						<feature> 8 </feature>
						<threshold> 0.8046875 </threshold>
						<split pos="left">
							<feature> 2 </feature>
							<threshold> 0.32421875 </threshold>
							<split pos="left">
								<output> 0.19944489002227783 </output>
							</split>
							<split pos="right">
								<output> 0.285563200712204 </output>
							</split>
						</split>
						<split pos="right">
							<output> 0.47333332896232605 </output>
						</split>
					</split>
					<split pos="right">
						<output> 0.3745928406715393 </output>
					</split>
				</split>
			</split>
			<split pos="right">
				<feature> 3 </feature>
				<threshold> 0.08984375 </threshold>
				<split pos="left">
					<feature> 1 </feature>
					<threshold> 0.10546875 </threshold>
					<split pos="left">
						<output> 0.2748701572418213 </output>
					</split>
					<split pos="right">
						<feature> 12 </feature>
						<threshold> 0.2109375 </threshold>
						<split pos="left">
							<output> 0.4306437075138092 </output>
						</split>
						<split pos="right">
							<output> 0.506205677986145 </output>
						</split>
					</split>
				</split>
				<split pos="right">
					<feature> 12 </feature>
					<threshold> 0.046875 </threshold>
					<split pos="left">
						<output> 0.5852236151695251 </output>
					</split>
					<split pos="right">
						<output> 0.718317985534668 </output>
					</split>
				</split>
			</split>
		</split>
	</tree>
</ensemble>

<ensemble>
	<tree id="1" weight="0.1">
		<split>
			<feature> 3 </feature>
			<threshold> 0.08203125 </threshold>
			<split pos="left">
				<feature> 1 </feature>
				<threshold> 0.046875 </threshold>
				<split pos="left">
					<output> 0.15780141949653625 </output>
				</split>
				<split pos="right">
					<feature> 2 </feature>
					<threshold> 0.13671875 </threshold>
					<split pos="left">
						<feature> 7 </feature>
						<threshold> 0.046875 </threshold>
						<split pos="left">
							<output> 0.22510957717895508 </output>
						</split>
						<split pos="right">
							<output> 0.3103746473789215 </output>
						</split>
					</split>
					<split pos="right">
						<feature> 8 </feature>
						<threshold> 0.54296875 </threshold>
						<split pos="left">
							<feature> 5 </feature>
							<threshold> 0.15625 </threshold>
							<split pos="left">
								<feature> 12 </feature>
								<threshold> 0.0078125 </threshold>
								<split pos="left">
									<output> 0.23773324489593506 </output>
								</split>
								<split pos="right">
									<output> 0.4012738764286041 </output>
								</split>
							</split>
							<split pos="right">
								<output> 0.3887999951839447 </output>
							</split>
						</split>
						<split pos="right">
							<output> 0.43847352266311646 </output>
						</split>
					</split>
				</split>
			</split>
			<split pos="right">
				<feature> 5 </feature>
				<threshold> 0.03125 </threshold>
				<split pos="left">
					<output> 0.48705825209617615 </output>
				</split>
				<split pos="right">
					<feature> 11 </feature>
					<threshold> 0.5 </threshold>
					<split pos="left">
						<output> 0.41671308875083923 </output>
					</split>
					<split pos="right">
						<output> 0.6411069631576538 </output>
					</split>
				</split>
			</split>
		</split>
	</tree>
</ensemble>

<ensemble>
	<tree id="1" weight="0.1">
		<split>
			<feature> 4 </feature>
			<threshold> 0.0 </threshold>
			<split pos="left">
				<feature> 1 </feature>
				<threshold> 0.03515625 </threshold>
				<split pos="left">
					<output> 0.11078472435474396 </output>
				</split>
				<split pos="right">
					<feature> 5 </feature>
					<threshold> 0.0 </threshold>
					<split pos="left">
						<output> 0.3684210479259491 </output>
					</split>
					<split pos="right">
						<feature> 10 </feature>
						<threshold> 0.8333334 </threshold>
						<split pos="left">
							<output> 0.20625580847263336 </output>
						</split>
						<split pos="right">
							<feature> 7 </feature>
							<threshold> 0.078125 </threshold>
							<split pos="left">
								<feature> 12 </feature>
								<threshold> 0.0078125 </threshold>
								<split pos="left">
									<output> 0.20414938032627106 </output>
								</split>
								<split pos="right">
									<output> 0.3711564540863037 </output>
								</split>
							</split>
							<split pos="right">
								<output> 0.39683985710144043 </output>
							</split>
						</split>
					</split>
				</split>
			</split>
			<split pos="right">
				<feature> 8 </feature>
				<threshold> 0.5703125 </threshold>
				<split pos="left">
					<feature> 11 </feature>
					<threshold> 0.6666666 </threshold>
					<split pos="left">
						<output> 0.42105263471603394 </output>
					</split>
					<split pos="right">
						<feature> 12 </feature>
						<threshold> 0.0078125 </threshold>
						<split pos="left">
							<output> 0.3739439845085144 </output>
						</split>
						<split pos="right">
							<output> 0.6873106956481934 </output>
						</split>
					</split>
				</split>
				<split pos="right">
					<output> 0.6400741934776306 </output>
				</split>
			</split>
		</split>
	</tree>
</ensemble>

<ensemble>
	<tree id="1" weight="0.1">
		<split>
			<feature> 10 </feature>
			<threshold> 0.8333334 </threshold>
			<split pos="left">
				<feature> 11 </feature>
				<threshold> 0.0 </threshold>
				<split pos="left">
					<feature> 7 </feature>
					<threshold> 0.046875 </threshold>
					<split pos="left">
						<feature> 2 </feature>
						<threshold> 0.140625 </threshold>
						<split pos="left">
							<output> 0.09713487327098846 </output>
						</split>
						<split pos="right">
							<output> 0.2138500213623047 </output>
						</split>
					</split>
					<split pos="right">
						<output> 0.18566711246967316 </output>
					</split>
				</split>
				<split pos="right">
					<feature> 12 </feature>
					<threshold> 0.0 </threshold>
					<split pos="left">
						<output> 0.2881140112876892 </output>
					</split>
					<split pos="right">
						<output> 0.8017902970314026 </output>
					</split>
				</split>
			</split>
			<split pos="right">
				<feature> 1 </feature>
				<threshold> 0.11328125 </threshold>
				<split pos="left">
					<feature> 1 </feature>
					<threshold> 0.05078125 </threshold>
					<split pos="left">
						<output> 0.216566264629364 </output>
					</split>
					<split pos="right">
						<output> 0.36818718910217285 </output>
					</split>
				</split>
				<split pos="right">
					<feature> 4 </feature>
					<threshold> 0.10546875 </threshold>
					<split pos="left">
						<feature> 7 </feature>
						<threshold> 0.01953125 </threshold>
						<split pos="left">
							<output> 0.30000001192092896 </output>
						</split>
						<split pos="right">
							<output> 0.47813326120376587 </output>
						</split>
					</split>
					<split pos="right">
						<output> 0.6517832279205322 </output>
					</split>
				</split>
			</split>
		</split>
	</tree>
</ensemble>

<ensemble>
	<tree id="1" weight="0.1">
		<split>
			<feature> 12 </feature>
			<threshold> 0.015625 </threshold>
			<split pos="left">
				<feature> 2 </feature>
				<threshold> 0.05859375 </threshold>
				<split pos="left">
					<output> 0.11008378863334656 </output>
				</split>
				<split pos="right">
					<feature> 1 </feature>
					<threshold> 0.28515625 </threshold>
					<split pos="left">
						<feature> 10 </feature>
						<threshold> 0.0 </threshold>
						<split pos="left">
							<output> 0.3642297685146332 </output>
						</split>
						<split pos="right">
							<output> 0.21927310526371002 </output>
						</split>
					</split>
					<split pos="right">
						<output> 0.3222197890281677 </output>
					</split>
				</split>
			</split>
			<split pos="right">
				<feature> 1 </feature>
				<threshold> 0.10546875 </threshold>
				<split pos="left">
					<feature> 4 </feature>
					<threshold> 0.046875 </threshold>
					<split pos="left">
						<output> 0.2708091735839844 </output>
					</split>
					<split pos="right">
						<output> 0.6596243977546692 </output>
					</split>
				</split>
				<split pos="right">
					<feature> 9 </feature>
					<threshold> 0.03125 </threshold>
					<split pos="left">
						<output> 0.39393940567970276 </output>
					</split>
					<split pos="right">
						<feature> 10 </feature>
						<threshold> 0.0 </threshold>
						<split pos="left">
							<output> 0.7644508481025696 </output>
						</split>
						<split pos="right">
							<feature> 7 </feature>
							<threshold> 0.1640625 </threshold>
							<split pos="left">
								<output> 0.5427734851837158 </output>
							</split>
							<split pos="right">
								<output> 0.6420996785163879 </output>
							</split>
						</split>
					</split>
				</split>
			</split>
		</split>
	</tree>
</ensemble>

<ensemble>
	<tree id="1" weight="0.1">
		<split>
			<feature> 11 </feature>
			<threshold> 0.3333333 </threshold>
			<split pos="left">
				<feature> 2 </feature>
				<threshold> 0.0546875 </threshold>
				<split pos="left">
					<feature> 1 </feature>
					<threshold> 0.03125 </threshold>
					<split pos="left">
						<output> 0.10248403251171112 </output>
					</split>
					<split pos="right">
						<output> 0.20032507181167603 </output>
					</split>
				</split>
				<split pos="right">
					<feature> 12 </feature>
					<threshold> 0.0078125 </threshold>
					<split pos="left">
						<feature> 7 </feature>
						<threshold> 0.0625 </threshold>
						<split pos="left">
							<output> 0.20353330671787262 </output>
						</split>
						<split pos="right">
							<output> 0.30877193808555603 </output>
						</split>
					</split>
					<split pos="right">
						<feature> 2 </feature>
						<threshold> 0.171875 </threshold>
						<split pos="left">
							<output> 0.3549373149871826 </output>
						</split>
						<split pos="right">
							<output> 0.4924153983592987 </output>
						</split>
					</split>
				</split>
			</split>
			<split pos="right">
				<feature> 5 </feature>
				<threshold> 0.0859375 </threshold>
				<split pos="left">
					<feature> 10 </feature>
					<threshold> 0.0 </threshold>
					<split pos="left">
						<output> 0.8238590955734253 </output>
					</split>
					<split pos="right">
						<feature> 7 </feature>
						<threshold> 0.015625 </threshold>
						<split pos="left">
							<output> 0.38363736867904663 </output>
						</split>
						<split pos="right">
							<output> 0.5803331732749939 </output>
						</split>
					</split>
				</split>
				<split pos="right">
					<output> 0.4400210976600647 </output>
				</split>
			</split>
		</split>
	</tree>
</ensemble>

<ensemble>
	<tree id="1" weight="0.1">
		<split>
			<feature> 11 </feature>
			<threshold> 0.3333333 </threshold>
			<split pos="left">
				<feature> 2 </feature>
				<threshold> 0.04296875 </threshold>
				<split pos="left">
					<output> 0.1281425505876541 </output>
				</split>
				<split pos="right">
					<feature> 12 </feature>
					<threshold> 0.00390625 </threshold>
					<split pos="left">
						<feature> 8 </feature>
						<threshold> 0.8046875 </threshold>
						<split pos="left">
							<output> 0.19997245073318481 </output>
						</split>
						<split pos="right">
							<output> 0.3786407709121704 </output>
						</split>
					</split>
					<split pos="right">
						<feature> 10 </feature>
						<threshold> 0.0 </threshold>
						<split pos="left">
							<output> 0.6619318127632141 </output>
						</split>
						<split pos="right">
							<feature> 8 </feature>
							<threshold> 0.03125 </threshold>
							<split pos="left">
								<output> 0.20512820780277252 </output>
							</split>
							<split pos="right">
								<feature> 9 </feature>
								<threshold> 0.0625 </threshold>
								<split pos="left">
									<output> 0.31454160809516907 </output>
								</split>
								<split pos="right">
									<output> 0.4249158203601837 </output>
								</split>
							</split>
						</split>
					</split>
				</split>
			</split>
			<split pos="right">
				<feature> 11 </feature>
				<threshold> 0.6666666 </threshold>
				<split pos="left">
					<output> 0.4441070854663849 </output>
				</split>
				<split pos="right">
					<feature> 8 </feature>
					<threshold> 0.23046875 </threshold>
					<split pos="left">
						<output> 0.529198408126831 </output>
					</split>
					<split pos="right">
						<output> 0.633273184299469 </output>
					</split>
				</split>
			</split>
		</split>
	</tree>
</ensemble>

<ensemble>
	<tree id="1" weight="0.1">
		<split>
			<feature> 7 </feature>
			<threshold> 0.01953125 </threshold>
			<split pos="left">
				<feature> 1 </feature>
				<threshold> 0.0859375 </threshold>
				<split pos="left">
					<output> 0.11233333498239517 </output>
				</split>
				<split pos="right">
					<feature> 10 </feature>
					<threshold> 0.75 </threshold>
					<split pos="left">
						<output> 0.2463442087173462 </output>
					</split>
					<split pos="right">
						<output> 0.36507275700569153 </output>
					</split>
				</split>
			</split>
			<split pos="right">
				<feature> 3 </feature>
				<threshold> 0.08203125 </threshold>
				<split pos="left">
					<feature> 1 </feature>
					<threshold> 0.046875 </threshold>
					<split pos="left">
						<feature> 12 </feature>
						<threshold> 0.00390625 </threshold>
						<split pos="left">
							<output> 0.13960891962051392 </output>
						</split>
						<split pos="right">
							<output> 0.24486692249774933 </output>
						</split>
					</split>
					<split pos="right">
						<feature> 2 </feature>
						<threshold> 0.14453125 </threshold>
						<split pos="left">
							<output> 0.2938487231731415 </output>
						</split>
						<split pos="right">
							<feature> 10 </feature>
							<threshold> 0.9 </threshold>
							<split pos="left">
								<output> 0.25804924964904785 </output>
							</split>
							<split pos="right">
								<output> 0.5223392844200134 </output>
							</split>
						</split>
					</split>
				</split>
				<split pos="right">
					<feature> 10 </feature>
					<threshold> 0.9 </threshold>
					<split pos="left">
						<output> 0.474303662776947 </output>
					</split>
					<split pos="right">
						<output> 0.6338208913803101 </output>
					</split>
				</split>
			</split>
		</split>
	</tree>
</ensemble>

<ensemble>
	<tree id="1" weight="0.1">
		<split>
			<feature> 1 </feature>
			<threshold> 0.05859375 </threshold>
			<split pos="left">
				<feature> 3 </feature>
				<threshold> 0.02734375 </threshold>
				<split pos="left">
					<feature> 12 </feature>
					<threshold> 0.00390625 </threshold>
					<split pos="left">
						<output> 0.10292556881904602 </output>
					</split>
					<split pos="right">
						<output> 0.2609410881996155 </output>
					</split>
				</split>
				<split pos="right">
					<output> 0.5266331434249878 </output>
				</split>
			</split>
			<split pos="right">
				<feature> 4 </feature>
				<threshold> 0.09765625 </threshold>
				<split pos="left">
					<feature> 1 </feature>
					<threshold> 0.14453125 </threshold>
					<split pos="left">
						<output> 0.2615569829940796 </output>
					</split>
					<split pos="right">
						<feature> 10 </feature>
						<threshold> 0.7777778 </threshold>
						<split pos="left">
							<output> 0.2743362784385681 </output>
						</split>
						<split pos="right">
							<output> 0.44400784373283386 </output>
						</split>
					</split>
				</split>
				<split pos="right">
					<feature> 9 </feature>
					<threshold> 0.05078125 </threshold>
					<split pos="left">
						<output> 0.37686195969581604 </output>
					</split>
					<split pos="right">
						<feature> 5 </feature>
						<threshold> 0.00390625 </threshold>
						<split pos="left">
							<output> 0.7288732528686523 </output>
						</split>
						<split pos="right">
							<feature> 11 </feature>
							<threshold> 0.5 </threshold>
							<split pos="left">
								<output> 0.4451456367969513 </output>
							</split>
							<split pos="right">
								<output> 0.5734454989433289 </output>
							</split>
						</split>
					</split>
				</split>
			</split>
		</split>
	</tree>
</ensemble>

<ensemble>
	<tree id="1" weight="0.1">
		<split>
			<feature> 2 </feature>
			<threshold> 0.05078125 </threshold>
			<split pos="left">
				<feature> 5 </feature>
				<threshold> 0.99609375 </threshold>
				<split pos="left">
					<feature> 1 </feature>
					<threshold> 0.01171875 </threshold>
					<split pos="left">
						<output> 0.1288357377052307 </output>
					</split>
					<split pos="right">
						<output> 0.23947690427303314 </output>
					</split>
				</split>
				<split pos="right">
					<output> 0.40082645416259766 </output>
				</split>
			</split>
			<split pos="right">
				<feature> 11 </feature>
				<threshold> 0.5 </threshold>
				<split pos="left">
					<feature> 7 </feature>
					<threshold> 0.015625 </threshold>
					<split pos="left">
						<output> 0.24408704042434692 </output>
					</split>
					<split pos="right">
						<feature> 9 </feature>
						<threshold> 0.03515625 </threshold>
						<split pos="left">
							<output> 0.2528597116470337 </output>
						</split>
						<split pos="right">
							<feature> 1 </feature>
							<threshold> 0.14453125 </threshold>
							<split pos="left">
								<output> 0.3079625368118286 </output>
							</split>
							<split pos="right">
								<feature> 11 </feature>
								<threshold> 0.3333333 </threshold>
								<split pos="left">
									<output> 0.3979432284832001 </output>
								</split>
								<split pos="right">
									<output> 0.4652014672756195 </output>
								</split>
							</split>
						</split>
					</split>
				</split>
				<split pos="right">
					<feature> 10 </feature>
					<threshold> 0.11111113 </threshold>
					<split pos="left">
						<output> 0.7517580986022949 </output>
					</split>
					<split pos="right">
						<output> 0.5029303431510925 </output>
					</split>
				</split>
			</split>
		</split>
	</tree>
</ensemble>

<ensemble>
	<tree id="1" weight="0.1">
		<split>
			<feature> 4 </feature>
			<threshold> 0.08203125 </threshold>
			<split pos="left">
				<feature> 12 </feature>
				<threshold> 0.00390625 </threshold>
				<split pos="left">
					<feature> 10 </feature>
					<threshold> 0.44444442 </threshold>
					<split pos="left">
						<output> 0.11184694617986679 </output>
					</split>
					<split pos="right">
						<feature> 2 </feature>
						<threshold> 0.08203125 </threshold>
						<split pos="left">
							<output> 0.10510600358247757 </output>
						</split>
						<split pos="right">
							<output> 0.2449699193239212 </output>
						</split>
					</split>
				</split>
				<split pos="right">
					<feature> 1 </feature>
					<threshold> 0.05078125 </threshold>
					<split pos="left">
						<output> 0.2180122435092926 </output>
					</split>
					<split pos="right">
						<feature> 1 </feature>
						<threshold> 0.23046875 </threshold>
						<split pos="left">
							<feature> 2 </feature>
							<threshold> 0.109375 </threshold>
							<split pos="left">
								<output> 0.3423387110233307 </output>
							</split>
							<split pos="right">
								<output> 0.4151802659034729 </output>
							</split>
						</split>
						<split pos="right">
							<output> 0.5195618271827698 </output>
						</split>
					</split>
				</split>
			</split>
			<split pos="right">
				<feature> 12 </feature>
				<threshold> 0.01171875 </threshold>
				<split pos="left">
					<feature> 10 </feature>
					<threshold> 0.11111113 </threshold>
					<split pos="left">
						<output> 0.5706371068954468 </output>
					</split>
					<split pos="right">
						<output> 0.37146225571632385 </output>
					</split>
				</split>
				<split pos="right">
					<output> 0.6909497380256653 </output>
				</split>
			</split>
		</split>
	</tree>
</ensemble>

<ensemble>
	<tree id="1" weight="0.1">
		<split>
			<feature> 11 </feature>
			<threshold> 0.5 </threshold>
			<split pos="left">
				<feature> 2 </feature>
				<threshold> 0.0546875 </threshold>
				<split pos="left">
					<output> 0.14741939306259155 </output>
				</split>
				<split pos="right">
					<feature> 7 </feature>
					<threshold> 0.0234375 </threshold>
					<split pos="left">
						<feature> 2 </feature>
						<threshold> 0.25 </threshold>
						<split pos="left">
							<output> 0.21390509605407715 </output>
						</split>
						<split pos="right">
							<output> 0.3520539104938507 </output>
						</split>
					</split>
					<split pos="right">
						<feature> 12 </feature>
						<threshold> 0.00390625 </threshold>
						<split pos="left">
							<output> 0.27854710817337036 </output>
						</split>
						<split pos="right">
							<feature> 8 </feature>
							<threshold> 0.625 </threshold>
							<split pos="left">
								<feature> 4 </feature>
								<threshold> 0.20703125 </threshold>
								<split pos="left">
									<output> 0.44793498516082764 </output>
								</split>
								<split pos="right">
									<output> 0.5948275923728943 </output>
								</split>
							</split>
							<split pos="right">
								<output> 0.606951892375946 </output>
							</split>
						</split>
					</split>
				</split>
			</split>
			<split pos="right">
				<feature> 8 </feature>
				<threshold> 0.53515625 </threshold>
				<split pos="left">
					<feature> 5 </feature>
					<threshold> 0.17578125 </threshold>
					<split pos="left">
						<output> 0.6244075894355774 </output>
					</split>
					<split pos="right">
						<output> 0.48547402024269104 </output>
					</split>
				</split>
				<split pos="right">
					<output> 0.6767169237136841 </output>
				</split>
			</split>
		</split>
	</tree>
</ensemble>

<ensemble>
	<tree id="1" weight="0.1">
		<split>
			<feature> 11 </feature>
			<threshold> 0.5 </threshold>
			<split pos="left">
				<feature> 12 </feature>
				<threshold> 0.00390625 </threshold>
				<split pos="left">
					<feature> 9 </feature>
					<threshold> 0.37890625 </threshold>
					<split pos="left">
						<feature> 11 </feature>
						<threshold> 0.3333333 </threshold>
						<split pos="left">
							<feature> 2 </feature>
							<threshold> 0.14453125 </threshold>
							<split pos="left">
								<output> 0.12962107360363007 </output>
							</split>
							<split pos="right">
								<output> 0.27996984124183655 </output>
							</split>
						</split>
						<split pos="right">
							<output> 0.3077889382839203 </output>
						</split>
					</split>
					<split pos="right">
						<output> 0.11905904859304428 </output>
					</split>
				</split>
				<split pos="right">
					<feature> 3 </feature>
					<threshold> 0.140625 </threshold>
					<split pos="left">
						<feature> 10 </feature>
						<threshold> 0.0 </threshold>
						<split pos="left">
							<output> 0.580152690410614 </output>
						</split>
						<split pos="right">
							<feature> 1 </feature>
							<threshold> 0.10546875 </threshold>
							<split pos="left">
								<output> 0.26189929246902466 </output>
							</split>
							<split pos="right">
								<output> 0.46972009539604187 </output>
							</split>
						</split>
					</split>
					<split pos="right">
						<output> 0.5641822218894958 </output>
					</split>
				</split>
			</split>
			<split pos="right">
				<feature> 7 </feature>
				<threshold> 0.00390625 </threshold>
				<split pos="left">
					<output> 0.40727272629737854 </output>
				</split>
				<split pos="right">
					<output> 0.6306778192520142 </output>
				</split>
			</split>
		</split>
	</tree>
</ensemble>

<ensemble>
	<tree id="1" weight="0.1">
		<split>
			<feature> 12 </feature>
			<threshold> 0.0078125 </threshold>
			<split pos="left">
				<feature> 2 </feature>
				<threshold> 0.078125 </threshold>
				<split pos="left">
					<output> 0.12662416696548462 </output>
				</split>
				<split pos="right">
					<feature> 11 </feature>
					<threshold> 0.0 </threshold>
					<split pos="left">
						<feature> 7 </feature>
						<threshold> 0.296875 </threshold>
						<split pos="left">
							<feature> 10 </feature>
							<threshold> 0.0 </threshold>
							<split pos="left">
								<output> 0.34046345949172974 </output>
							</split>
							<split pos="right">
								<output> 0.2082294225692749 </output>
							</split>
						</split>
						<split pos="right">
							<output> 0.42307692766189575 </output>
						</split>
					</split>
					<split pos="right">
						<output> 0.3825671374797821 </output>
					</split>
				</split>
			</split>
			<split pos="right">
				<feature> 11 </feature>
				<threshold> 0.5 </threshold>
				<split pos="left">
					<feature> 2 </feature>
					<threshold> 0.0546875 </threshold>
					<split pos="left">
						<output> 0.23948219418525696 </output>
					</split>
					<split pos="right">
						<feature> 4 </feature>
						<threshold> 0.484375 </threshold>
						<split pos="left">
							<feature> 12 </feature>
							<threshold> 0.12109375 </threshold>
							<split pos="left">
								<output> 0.3809638023376465 </output>
							</split>
							<split pos="right">
								<output> 0.524688720703125 </output>
							</split>
						</split>
						<split pos="right">
							<output> 0.6749311089515686 </output>
						</split>
					</split>
				</split>
				<split pos="right">
					<output> 0.6847116351127625 </output>
				</split>
			</split>
		</split>
	</tree>
</ensemble>

<ensemble>
	<tree id="1" weight="0.1">
		<split>
			<feature> 11 </feature>
			<threshold> 0.3333333 </threshold>
			<split pos="left">
				<feature> 1 </feature>
				<threshold> 0.109375 </threshold>
				<split pos="left">
					<feature> 12 </feature>
					<threshold> 0.08984375 </threshold>
					<split pos="left">
						<feature> 1 </feature>
						<threshold> 0.06640625 </threshold>
						<split pos="left">
							<output> 0.12755851447582245 </output>
						</split>
						<split pos="right">
							<output> 0.18459002673625946 </output>
						</split>
					</split>
					<split pos="right">
						<output> 0.3061538338661194 </output>
					</split>
				</split>
				<split pos="right">
					<feature> 12 </feature>
					<threshold> 0.0078125 </threshold>
					<split pos="left">
						<feature> 10 </feature>
						<threshold> 0.6 </threshold>
						<split pos="left">
							<output> 0.17804460227489471 </output>
						</split>
						<split pos="right">
							<output> 0.2993221580982208 </output>
						</split>
					</split>
					<split pos="right">
						<feature> 9 </feature>
						<threshold> 0.140625 </threshold>
						<split pos="left">
							<output> 0.40176212787628174 </output>
						</split>
						<split pos="right">
							<output> 0.48407644033432007 </output>
						</split>
					</split>
				</split>
			</split>
			<split pos="right">
				<feature> 3 </feature>
				<threshold> 0.08984375 </threshold>
				<split pos="left">
					<output> 0.3285714387893677 </output>
				</split>
				<split pos="right">
					<feature> 12 </feature>
					<threshold> 0.0078125 </threshold>
					<split pos="left">
						<output> 0.36161017417907715 </output>
					</split>
					<split pos="right">
						<output> 0.6771599054336548 </output>
					</split>
				</split>
			</split>
		</split>
	</tree>
</ensemble>

<ensemble>
	<tree id="1" weight="0.1">
		<split>
			<feature> 2 </feature>
			<threshold> 0.07421875 </threshold>
			<split pos="left">
				<feature> 12 </feature>
				<threshold> 0.0078125 </threshold>
				<split pos="left">
					<output> 0.13989362120628357 </output>
				</split>
				<split pos="right">
					<output> 0.32800376415252686 </output>
				</split>
			</split>
			<split pos="right">
				<feature> 4 </feature>
				<threshold> 0.21484375 </threshold>
				<split pos="left">
					<feature> 10 </feature>
					<threshold> 0.9 </threshold>
					<split pos="left">
						<feature> 2 </feature>
						<threshold> 0.3828125 </threshold>
						<split pos="left">
							<feature> 8 </feature>
							<threshold> 0.8046875 </threshold>
							<split pos="left">
								<output> 0.23045267164707184 </output>
							</split>
							<split pos="right">
								<output> 0.43573668599128723 </output>
							</split>
						</split>
						<split pos="right">
							<output> 0.32832765579223633 </output>
						</split>
					</split>
					<split pos="right">
						<feature> 2 </feature>
						<threshold> 0.23046875 </threshold>
						<split pos="left">
							<feature> 7 </feature>
							<threshold> 0.24609375 </threshold>
							<split pos="left">
								<output> 0.3278307318687439 </output>
							</split>
							<split pos="right">
								<output> 0.45972222089767456 </output>
							</split>
						</split>
						<split pos="right">
							<output> 0.4647330343723297 </output>
						</split>
					</split>
				</split>
				<split pos="right">
					<feature> 12 </feature>
					<threshold> 0.01171875 </threshold>
					<split pos="left">
						<output> 0.3824228048324585 </output>
					</split>
					<split pos="right">
						<output> 0.6862951517105103 </output>
					</split>
				</split>
			</split>
		</split>
	</tree>
</ensemble>

<ensemble>
	<tree id="1" weight="0.1">
		<split>
			<feature> 12 </feature>
			<threshold> 0.00390625 </threshold>
			<split pos="left">
				<feature> 1 </feature>
				<threshold> 0.140625 </threshold>
				<split pos="left">
					<feature> 3 </feature>
					<threshold> 0.01953125 </threshold>
					<split pos="left">
						<output> 0.11164398491382599 </output>
					</split>
					<split pos="right">
						<output> 0.2898148000240326 </output>
					</split>
				</split>
				<split pos="right">
					<feature> 8 </feature>
					<threshold> 0.2421875 </threshold>
					<split pos="left">
						<output> 0.23641495406627655 </output>
					</split>
					<split pos="right">
						<output> 0.31044238805770874 </output>
					</split>
				</split>
			</split>
			<split pos="right">
				<feature> 3 </feature>
				<threshold> 0.08203125 </threshold>
				<split pos="left">
					<feature> 2 </feature>
					<threshold> 0.109375 </threshold>
					<split pos="left">
						<feature> 9 </feature>
						<threshold> 0.0390625 </threshold>
						<split pos="left">
							<output> 0.20208604633808136 </output>
						</split>
						<split pos="right">
							<output> 0.2797904908657074 </output>
						</split>
					</split>
					<split pos="right">
						<feature> 8 </feature>
						<threshold> 0.6328125 </threshold>
						<split pos="left">
							<output> 0.383544921875 </output>
						</split>
						<split pos="right">
							<output> 0.5957121253013611 </output>
						</split>
					</split>
				</split>
				<split pos="right">
					<feature> 3 </feature>
					<threshold> 0.48046875 </threshold>
					<split pos="left">
						<output> 0.631990373134613 </output>
					</split>
					<split pos="right">
						<output> 0.7394557595252991 </output>
					</split>
				</split>
			</split>
		</split>
	</tree>
</ensemble>

<ensemble>
	<tree id="1" weight="0.1">
		<split>
			<feature> 4 </feature>
			<threshold> 0.08984375 </threshold>
			<split pos="left">
				<feature> 1 </feature>
				<threshold> 0.0546875 </threshold>
				<split pos="left">
					<feature> 3 </feature>
					<threshold> 0.046875 </threshold>
					<split pos="left">
						<feature> 8 </feature>
						<threshold> 0.88671875 </threshold>
						<split pos="left">
							<output> 0.14787864685058594 </output>
						</split>
						<split pos="right">
							<output> 0.25757575035095215 </output>
						</split>
					</split>
