## MART
## No. of trees = 1000
## No. of leaves = 10
## No. of threshold candidates = 256
## Learning rate = 0.1
## Stop early = 100

<ensemble>
	<tree id="1" weight="0.1">
		<split>
			<feature> 24 </feature>
			<threshold> 0.0 </threshold>
			<split pos="left">
				<feature> 3 </feature>
				<threshold> 0.68359375 </threshold>
				<split pos="left">
					<feature> 101 </feature>
					<threshold> 0.03230168 </threshold>
					<split pos="left">
						<feature> 4 </feature>
						<threshold> 0.57421875 </threshold>
						<split pos="left">
							<output> 1.0444158 </output>
						</split>
						<split pos="right">
							<output> 1.4248878 </output>
						</split>
					</split>
					<split pos="right">
						<feature> 11 </feature>
						<threshold> 0.45690596 </threshold>
						<split pos="left">
							<output> 2.1531987 </output>
						</split>
						<split pos="right">
							<feature> 191 </feature>
							<threshold> 0.14002535 </threshold>
							<split pos="left">
								<output> 1.4237689 </output>
							</split>
							<split pos="right">
								<output> 2.1521258 </output>
							</split>
						</split>
					</split>
				</split>
				<split pos="right">
					<output> 3.3984907 </output>
				</split>
			</split>
			<split pos="right">
				<feature> 11 </feature>
				<threshold> 0.47643185 </threshold>
				<split pos="left">
					<output> 0.4694805 </output>
				</split>
				<split pos="right">
					<feature> 66 </feature>
					<threshold> 0.8 </threshold>
					<split pos="left">
						<feature> 14 </feature>
						<threshold> 0.011765 </threshold>
						<split pos="left">
							<output> 0.94616544 </output>
						</split>
						<split pos="right">
							<output> 0.7121522 </output>
						</split>
					</split>
					<split pos="right">
						<output> 1.2205901 </output>
					</split>
				</split>
			</split>
		</split>
	</tree>
	<tree id="2" weight="0.1">
		<split>
			<feature> 24 </feature>
			<threshold> 0.0 </threshold>
			<split pos="left">
				<feature> 227 </feature>
				<threshold> 0.21240792 </threshold>
				<split pos="left">
					<feature> 101 </feature>
					<threshold> 0.03230168 </threshold>
					<split pos="left">
						<feature> 154 </feature>
						<threshold> 0.7514987 </threshold>
						<split pos="left">
							<output> 0.91313076 </output>
						</split>
						<split pos="right">
							<output> 1.2657727 </output>
						</split>
					</split>
					<split pos="right">
						<feature> 11 </feature>
						<threshold> 0.45690596 </threshold>
						<split pos="left">
							<output> 1.9357259 </output>
						</split>
						<split pos="right">
							<output> 1.3339734 </output>
						</split>
					</split>
				</split>
				<split pos="right">
					<output> 2.8835037 </output>
				</split>
			</split>
			<split pos="right">
				<feature> 11 </feature>
				<threshold> 0.47643185 </threshold>
				<split pos="left">
					<output> 0.42254028 </output>
				</split>
				<split pos="right">
					<feature> 5 </feature>
					<threshold> 0.09021413 </threshold>
					<split pos="left">
						<feature> 4 </feature>
						<threshold> 0.1171875 </threshold>
						<split pos="left">
							<feature> 227 </feature>
							<threshold> 0.007080266 </threshold>
							<split pos="left">
								<output> 0.66475654 </output>
							</split>
							<split pos="right">
								<output> 0.9770918 </output>
							</split>
						</split>
						<split pos="right">
							<output> 0.9778921 </output>
						</split>
					</split>
					<split pos="right">
						<output> 1.2974356 </output>
					</split>
				</split>
			</split>
		</split>
	</tree>
	<tree id="3" weight="0.1">
		<split>
			<feature> 24 </feature>
			<threshold> 0.0 </threshold>
			<split pos="left">
				<feature> 43 </feature>
				<threshold> 0.3125 </threshold>
				<split pos="left">
					<feature> 101 </feature>
					<threshold> 0.01615084 </threshold>
					<split pos="left">
						<feature> 154 </feature>
						<threshold> 0.7514987 </threshold>
						<split pos="left">
							<output> 0.80785656 </output>
						</split>
						<split pos="right">
							<output> 1.1317701 </output>
						</split>
					</split>
					<split pos="right">
						<feature> 11 </feature>
						<threshold> 0.46081114 </threshold>
						<split pos="left">
							<output> 1.7343042 </output>
						</split>
						<split pos="right">
							<feature> 4 </feature>
							<threshold> 0.1875 </threshold>
							<split pos="left">
								<output> 1.0034759 </output>
							</split>
							<split pos="right">
								<output> 1.4357705 </output>
							</split>
						</split>
					</split>
				</split>
				<split pos="right">
					<output> 2.7790825 </output>
				</split>
			</split>
			<split pos="right">
				<feature> 11 </feature>
				<threshold> 0.51157844 </threshold>
				<split pos="left">
					<output> 0.40255588 </output>
				</split>
				<split pos="right">
					<feature> 119 </feature>
					<threshold> 0.888889 </threshold>
					<split pos="left">
						<feature> 195 </feature>
						<threshold> 0.0 </threshold>
						<split pos="left">
							<output> 0.6054296 </output>
						</split>
						<split pos="right">
							<output> 0.8334399 </output>
						</split>
					</split>
					<split pos="right">
						<output> 1.0203208 </output>
					</split>
				</split>
			</split>
		</split>
	</tree>
	<tree id="4" weight="0.1">
		<split>
			<feature> 199 </feature>
			<threshold> 0.3630221 </threshold>
			<split pos="left">
				<feature> 11 </feature>
				<threshold> 0.6521648 </threshold>
				<split pos="left">
					<feature> 150 </feature>
					<threshold> 0.36735532 </threshold>
					<split pos="left">
						<output> 0.2893585 </output>
					</split>
					<split pos="right">
						<output> 0.5319906 </output>
					</split>
				</split>
				<split pos="right">
					<feature> 5 </feature>
					<threshold> 0.09568165 </threshold>
					<split pos="left">
						<feature> 227 </feature>
						<threshold> 0.007080266 </threshold>
						<split pos="left">
							<feature> 211 </feature>
							<threshold> 0.682353 </threshold>
							<split pos="left">
								<output> 0.7722707 </output>
							</split>
							<split pos="right">
								<output> 0.5500699 </output>
							</split>
						</split>
						<split pos="right">
							<output> 0.9068068 </output>
						</split>
					</split>
					<split pos="right">
						<output> 1.1949335 </output>
					</split>
				</split>
			</split>
			<split pos="right">
				<feature> 3 </feature>
				<threshold> 0.7109375 </threshold>
				<split pos="left">
					<feature> 25 </feature>
					<threshold> 0.0 </threshold>
					<split pos="left">
						<feature> 33 </feature>
						<threshold> 0.0 </threshold>
						<split pos="left">
							<output> 0.76377636 </output>
						</split>
						<split pos="right">
							<output> 1.2266828 </output>
						</split>
					</split>
					<split pos="right">
						<output> 1.8653141 </output>
					</split>
				</split>
				<split pos="right">
					<output> 2.7552338 </output>
				</split>
			</split>
		</split>
	</tree>
	<tree id="5" weight="0.1">
		<split>
			<feature> 24 </feature>
			<threshold> 0.0 </threshold>
			<split pos="left">
				<feature> 227 </feature>
				<threshold> 0.21240792 </threshold>
				<split pos="left">
					<feature> 101 </feature>
					<threshold> 0.03230168 </threshold>
					<split pos="left">
						<feature> 181 </feature>
						<threshold> 0.0 </threshold>
						<split pos="left">
							<output> 0.6471423 </output>
						</split>
						<split pos="right">
							<output> 0.95707285 </output>
						</split>
					</split>
					<split pos="right">
						<feature> 25 </feature>
						<threshold> 0.0 </threshold>
						<split pos="left">
							<feature> 86 </feature>
							<threshold> 0.078431 </threshold>
							<split pos="left">
								<output> 1.1745569 </output>
							</split>
							<split pos="right">
								<output> 0.83941525 </output>
							</split>
						</split>
						<split pos="right">
							<output> 1.8687729 </output>
						</split>
					</split>
				</split>
				<split pos="right">
					<output> 2.1567051 </output>
				</split>
			</split>
			<split pos="right">
				<feature> 150 </feature>
				<threshold> 0.6275653 </threshold>
				<split pos="left">
					<feature> 30 </feature>
					<threshold> 0.009793375 </threshold>
					<split pos="left">
						<output> 0.33994123 </output>
					</split>
					<split pos="right">
						<output> 0.6292902 </output>
					</split>
				</split>
				<split pos="right">
					<feature> 4 </feature>
					<threshold> 0.1171875 </threshold>
					<split pos="left">
						<output> 0.5941743 </output>
					</split>
					<split pos="right">
						<output> 0.8727296 </output>
					</split>
				</split>
			</split>
		</split>
	</tree>
	<tree id="6" weight="0.1">
		<split>
			<feature> 199 </feature>
			<threshold> 0.36950463 </threshold>
			<split pos="left">
				<feature> 150 </feature>
				<threshold> 0.6466984 </threshold>
				<split pos="left">
					<feature> 30 </feature>
					<threshold> 0.20566104 </threshold>
					<split pos="left">
						<feature> 11 </feature>
						<threshold> 0.3670869 </threshold>
						<split pos="left">
							<output> 0.20444216 </output>
						</split>
						<split pos="right">
							<output> 0.41675937 </output>
						</split>
					</split>
					<split pos="right">
						<output> 1.2199283 </output>
					</split>
				</split>
				<split pos="right">
					<feature> 5 </feature>
					<threshold> 0.09021413 </threshold>
					<split pos="left">
						<feature> 210 </feature>
						<threshold> 0.992157 </threshold>
						<split pos="left">
							<output> 0.70037144 </output>
						</split>
						<split pos="right">
							<output> 0.4687133 </output>
						</split>
					</split>
					<split pos="right">
						<output> 0.9955154 </output>
					</split>
				</split>
			</split>
			<split pos="right">
				<feature> 3 </feature>
				<threshold> 0.75 </threshold>
				<split pos="left">
					<feature> 25 </feature>
					<threshold> 0.0 </threshold>
					<split pos="left">
						<feature> 33 </feature>
						<threshold> 0.0 </threshold>
						<split pos="left">
							<output> 0.6071576 </output>
						</split>
						<split pos="right">
							<output> 1.0162268 </output>
						</split>
					</split>
					<split pos="right">
						<output> 1.5485878 </output>
					</split>
				</split>
				<split pos="right">
					<output> 2.3085694 </output>
				</split>
			</split>
		</split>
	</tree>
	<tree id="7" weight="0.1">
		<split>
			<feature> 113 </feature>
			<threshold> 0.0 </threshold>
			<split pos="left">
				<feature> 77 </feature>
				<threshold> 0.25255677 </threshold>
				<split pos="left">
					<output> 0.21858868 </output>
				</split>
				<split pos="right">
					<feature> 119 </feature>
					<threshold> 0.0 </threshold>
					<split pos="left">
						<output> 0.37171382 </output>
					</split>
					<split pos="right">
						<output> 0.5863604 </output>
					</split>
				</split>
			</split>
			<split pos="right">
				<feature> 227 </feature>
				<threshold> 0.21240792 </threshold>
				<split pos="left">
					<feature> 210 </feature>
					<threshold> 0.878431 </threshold>
					<split pos="left">
						<feature> 25 </feature>
						<threshold> 0.0 </threshold>
						<split pos="left">
							<feature> 2 </feature>
							<threshold> 0.0 </threshold>
							<split pos="left">
								<output> 0.59824926 </output>
							</split>
							<split pos="right">
								<output> 0.9896602 </output>
							</split>
						</split>
						<split pos="right">
							<output> 1.6624689 </output>
						</split>
					</split>
					<split pos="right">
						<feature> 58 </feature>
						<threshold> 0.0 </threshold>
						<split pos="left">
							<feature> 4 </feature>
							<threshold> 0.19140625 </threshold>
							<split pos="left">
								<output> 0.3967357 </output>
							</split>
							<split pos="right">
								<output> 0.6973527 </output>
							</split>
						</split>
						<split pos="right">
							<output> 0.8521522 </output>
						</split>
					</split>
				</split>
				<split pos="right">
					<output> 1.7879776 </output>
				</split>
			</split>
		</split>
	</tree>
	<tree id="8" weight="0.1">
		<split>
			<feature> 113 </feature>
			<threshold> 0.01615084 </threshold>
			<split pos="left">
				<feature> 101 </feature>
				<threshold> 0.08075422 </threshold>
				<split pos="left">
					<feature> 119 </feature>
					<threshold> 0.0 </threshold>
					<split pos="left">
						<feature> 150 </feature>
						<threshold> 0.4898071 </threshold>
						<split pos="left">
							<output> 0.1905756 </output>
						</split>
						<split pos="right">
							<output> 0.3616554 </output>
						</split>
					</split>
					<split pos="right">
						<feature> 4 </feature>
						<threshold> 0.04296875 </threshold>
						<split pos="left">
							<feature> 210 </feature>
							<threshold> 0.992157 </threshold>
							<split pos="left">
								<output> 0.5336145 </output>
							</split>
							<split pos="right">
								<output> 0.28521016 </output>
							</split>
						</split>
						<split pos="right">
							<output> 0.7368526 </output>
						</split>
					</split>
				</split>
				<split pos="right">
					<output> 1.0412997 </output>
				</split>
			</split>
			<split pos="right">
				<feature> 3 </feature>
				<threshold> 0.7109375 </threshold>
				<split pos="left">
					<feature> 191 </feature>
					<threshold> 0.1840333 </threshold>
					<split pos="left">
						<feature> 33 </feature>
						<threshold> 0.0 </threshold>
						<split pos="left">
							<output> 0.48264316 </output>
						</split>
						<split pos="right">
							<output> 0.7996342 </output>
						</split>
					</split>
					<split pos="right">
						<output> 1.4581689 </output>
					</split>
				</split>
				<split pos="right">
					<output> 1.7853507 </output>
				</split>
			</split>
		</split>
	</tree>
	<tree id="9" weight="0.1">
		<split>
			<feature> 199 </feature>
			<threshold> 0.36950463 </threshold>
			<split pos="left">
				<feature> 197 </feature>
				<threshold> 0.09022783 </threshold>
				<split pos="left">
					<feature> 150 </feature>
					<threshold> 0.6466984 </threshold>
					<split pos="left">
						<feature> 93 </feature>
						<threshold> 0.642857 </threshold>
						<split pos="left">
							<output> 0.114977606 </output>
						</split>
						<split pos="right">
							<feature> 4 </feature>
							<threshold> 0.73828125 </threshold>
							<split pos="left">
								<output> 0.25947773 </output>
							</split>
							<split pos="right">
								<output> 0.56247884 </output>
							</split>
						</split>
					</split>
					<split pos="right">
						<feature> 147 </feature>
						<threshold> 0.537255 </threshold>
						<split pos="left">
							<output> 0.37008476 </output>
						</split>
						<split pos="right">
							<output> 0.5997317 </output>
						</split>
					</split>
				</split>
				<split pos="right">
					<output> 0.57816344 </output>
				</split>
			</split>
			<split pos="right">
				<feature> 71 </feature>
				<threshold> 0.09414523 </threshold>
				<split pos="left">
					<feature> 185 </feature>
					<threshold> 0.694118 </threshold>
					<split pos="left">
						<output> 0.8331046 </output>
					</split>
					<split pos="right">
						<feature> 9 </feature>
						<threshold> 0.11228346 </threshold>
						<split pos="left">
							<output> 0.4272879 </output>
						</split>
						<split pos="right">
							<output> 0.8008233 </output>
						</split>
					</split>
				</split>
				<split pos="right">
					<output> 1.561458 </output>
				</split>
			</split>
		</split>
	</tree>
	<tree id="10" weight="0.1">
		<split>
			<feature> 113 </feature>
			<threshold> 0.03553185 </threshold>
			<split pos="left">
				<feature> 57 </feature>
				<threshold> 0.0016468125 </threshold>
				<split pos="left">
					<feature> 11 </feature>
					<threshold> 0.4334749 </threshold>
					<split pos="left">
						<output> 0.07814359 </output>
					</split>
					<split pos="right">
						<output> 0.28721458 </output>
					</split>
				</split>
				<split pos="right">
					<feature> 68 </feature>
					<threshold> 0.01835496 </threshold>
					<split pos="left">
						<output> 1.3308297 </output>
					</split>
					<split pos="right">
						<feature> 4 </feature>
						<threshold> 0.70703125 </threshold>
						<split pos="left">
							<feature> 18 </feature>
							<threshold> 0.984314 </threshold>
							<split pos="left">
								<output> 0.44694018 </output>
							</split>
							<split pos="right">
								<output> 0.26036647 </output>
							</split>
						</split>
						<split pos="right">
							<output> 0.66365445 </output>
						</split>
					</split>
				</split>
			</split>
			<split pos="right">
				<feature> 43 </feature>
				<threshold> 0.57421875 </threshold>
				<split pos="left">
					<feature> 191 </feature>
					<threshold> 0.14202571 </threshold>
					<split pos="left">
						<feature> 33 </feature>
						<threshold> 0.0 </threshold>
						<split pos="left">
							<output> 0.37085983 </output>
						</split>
						<split pos="right">
							<output> 0.6703966 </output>
						</split>
					</split>
					<split pos="right">
						<output> 1.1419634 </output>
					</split>
				</split>
				<split pos="right">
					<output> 1.6173899 </output>
				</split>
			</split>
		</split>
	</tree>
	<tree id="11" weight="0.1">
		<split>
			<feature> 113 </feature>
			<threshold> 0.0 </threshold>
			<split pos="left">
				<feature> 53 </feature>
				<threshold> 0.022434423 </threshold>
				<split pos="left">
					<output> 0.12928472 </output>
				</split>
				<split pos="right">
					<feature> 4 </feature>
					<threshold> 0.59765625 </threshold>
					<split pos="left">
						<feature> 161 </feature>
						<threshold> 0.016871583 </threshold>
						<split pos="left">
							<feature> 14 </feature>
							<threshold> 0.015686 </threshold>
							<split pos="left">
								<output> 0.3372448 </output>
							</split>
							<split pos="right">
								<output> 0.1747327 </output>
							</split>
						</split>
						<split pos="right">
							<output> 0.7666441 </output>
						</split>
					</split>
					<split pos="right">
						<output> 0.5530672 </output>
					</split>
				</split>
			</split>
			<split pos="right">
				<feature> 43 </feature>
				<threshold> 0.359375 </threshold>
				<split pos="left">
					<feature> 210 </feature>
					<threshold> 0.858824 </threshold>
					<split pos="left">
						<feature> 210 </feature>
						<threshold> 0.839216 </threshold>
						<split pos="left">
							<output> 0.5781817 </output>
						</split>
						<split pos="right">
							<output> 1.629981 </output>
						</split>
					</split>
					<split pos="right">
						<feature> 4 </feature>
						<threshold> 0.0625 </threshold>
						<split pos="left">
							<output> 0.27972332 </output>
						</split>
						<split pos="right">
							<output> 0.54987276 </output>
						</split>
					</split>
				</split>
				<split pos="right">
					<output> 1.3502961 </output>
				</split>
			</split>
		</split>
	</tree>
	<tree id="12" weight="0.1">
		<split>
			<feature> 113 </feature>
			<threshold> 0.03553185 </threshold>
			<split pos="left">
				<feature> 57 </feature>
				<threshold> 0.0016468125 </threshold>
				<split pos="left">
					<feature> 146 </feature>
					<threshold> 0.07421875 </threshold>
					<split pos="left">
						<output> 0.07702548 </output>
					</split>
					<split pos="right">
						<output> 0.2575296 </output>
					</split>
				</split>
				<split pos="right">
					<feature> 68 </feature>
					<threshold> 0.01835496 </threshold>
					<split pos="left">
						<output> 1.1160586 </output>
					</split>
					<split pos="right">
						<feature> 4 </feature>
						<threshold> 0.70703125 </threshold>
						<split pos="left">
							<feature> 18 </feature>
							<threshold> 0.980392 </threshold>
							<split pos="left">
								<feature> 227 </feature>
								<threshold> 0.116824426 </threshold>
								<split pos="left">
									<output> 0.35566834 </output>
								</split>
								<split pos="right">
									<output> 1.1263818 </output>
								</split>
							</split>
							<split pos="right">
								<feature> 10 </feature>
								<threshold> 0.0038999922 </threshold>
								<split pos="left">
									<output> 0.16869834 </output>
								</split>
								<split pos="right">
									<output> 0.42384428 </output>
								</split>
							</split>
						</split>
						<split pos="right">
							<output> 0.54225975 </output>
						</split>
					</split>
				</split>
			</split>
			<split pos="right">
				<feature> 2 </feature>
				<threshold> 0.0 </threshold>
				<split pos="left">
					<output> 0.37266052 </output>
				</split>
				<split pos="right">
					<output> 0.6839848 </output>
				</split>
			</split>
		</split>
	</tree>
	<tree id="13" weight="0.1">
		<split>
			<feature> 33 </feature>
			<threshold> 0.0 </threshold>
			<split pos="left">
				<feature> 25 </feature>
				<threshold> 0.0 </threshold>
				<split pos="left">
					<feature> 4 </feature>
					<threshold> 0.57421875 </threshold>
					<split pos="left">
						<feature> 68 </feature>
						<threshold> 0.46254483 </threshold>
						<split pos="left">
							<feature> 194 </feature>
							<threshold> 0.14400342 </threshold>
							<split pos="left">
								<feature> 18 </feature>
								<threshold> 0.992157 </threshold>
								<split pos="left">
									<output> 0.13383336 </output>
								</split>
								<split pos="right">
									<output> -0.034672447 </output>
								</split>
							</split>
							<split pos="right">
								<output> 0.21890426 </output>
							</split>
						</split>
						<split pos="right">
							<output> 0.40612537 </output>
						</split>
					</split>
					<split pos="right">
						<output> 0.43385223 </output>
					</split>
				</split>
				<split pos="right">
					<output> 0.6285972 </output>
				</split>
			</split>
			<split pos="right">
				<feature> 2 </feature>
				<threshold> 0.0 </threshold>
				<split pos="left">
					<feature> 212 </feature>
					<threshold> 0.19359243 </threshold>
					<split pos="left">
						<feature> 77 </feature>
						<threshold> 0.2142906 </threshold>
						<split pos="left">
							<output> -0.0071262517 </output>
						</split>
						<split pos="right">
							<output> 0.29358912 </output>
						</split>
					</split>
					<split pos="right">
						<output> 0.6357799 </output>
					</split>
				</split>
				<split pos="right">
					<output> 0.60985017 </output>
				</split>
			</split>
		</split>
	</tree>
	<tree id="14" weight="0.1">
		<split>
			<feature> 199 </feature>
			<threshold> 0.45701894 </threshold>
			<split pos="left">
				<feature> 71 </feature>
				<threshold> 0.0064927735 </threshold>
				<split pos="left">
					<feature> 119 </feature>
					<threshold> 0.888889 </threshold>
					<split pos="left">
						<feature> 14 </feature>
						<threshold> 0.007843 </threshold>
						<split pos="left">
							<feature> 2 </feature>
							<threshold> 0.0 </threshold>
							<split pos="left">
								<output> 0.12456492 </output>
							</split>
							<split pos="right">
								<output> 0.3481231 </output>
							</split>
						</split>
						<split pos="right">
							<feature> 40 </feature>
							<threshold> 0.42909318 </threshold>
							<split pos="left">
								<feature> 51 </feature>
								<threshold> 0.27770633 </threshold>
								<split pos="left">
									<output> 0.03207293 </output>
								</split>
								<split pos="right">
									<output> 0.14682384 </output>
								</split>
							</split>
							<split pos="right">
								<output> 0.32436186 </output>
							</split>
						</split>
					</split>
					<split pos="right">
						<output> 0.3653539 </output>
					</split>
				</split>
				<split pos="right">
					<output> 0.41970813 </output>
				</split>
			</split>
			<split pos="right">
				<feature> 11 </feature>
				<threshold> 0.4998629 </threshold>
				<split pos="left">
					<output> 0.99113774 </output>
				</split>
				<split pos="right">
					<feature> 181 </feature>
					<threshold> 0.006433863 </threshold>
					<split pos="left">
						<output> 0.26003036 </output>
					</split>
					<split pos="right">
						<output> 0.61192334 </output>
					</split>
				</split>
			</split>
		</split>
	</tree>
	<tree id="15" weight="0.1">
		<split>
			<feature> 43 </feature>
			<threshold> 0.046875 </threshold>
			<split pos="left">
				<feature> 4 </feature>
				<threshold> 0.57421875 </threshold>
				<split pos="left">
					<feature> 74 </feature>
					<threshold> 0.360784 </threshold>
					<split pos="left">
						<feature> 25 </feature>
						<threshold> 0.0 </threshold>
						<split pos="left">
							<output> 0.26685396 </output>
						</split>
						<split pos="right">
							<output> 1.3096277 </output>
						</split>
					</split>
					<split pos="right">
						<feature> 191 </feature>
						<threshold> 0.14202571 </threshold>
						<split pos="left">
							<feature> 227 </feature>
							<threshold> 0.003540133 </threshold>
							<split pos="left">
								<feature> 119 </feature>
								<threshold> 0.923077 </threshold>
								<split pos="left">
									<feature> 211 </feature>
									<threshold> 0.870588 </threshold>
									<split pos="left">
										<feature> 126 </feature>
										<threshold> 0.98828125 </threshold>
										<split pos="left">
											<output> 0.07624019 </output>
										</split>
										<split pos="right">
											<output> 0.25665227 </output>
										</split>
									</split>
									<split pos="right">
										<output> -0.014523206 </output>
									</split>
								</split>
								<split pos="right">
									<output> 0.2815554 </output>
								</split>
							</split>
							<split pos="right">
								<output> 0.23675558 </output>
							</split>
						</split>
						<split pos="right">
							<output> 0.5209424 </output>
						</split>
					</split>
				</split>
				<split pos="right">
					<output> 0.4014566 </output>
				</split>
			</split>
			<split pos="right">
				<output> 0.7138812 </output>
			</split>
		</split>
	</tree>
	<tree id="16" weight="0.1">
		<split>
			<feature> 199 </feature>
			<threshold> 0.45701894 </threshold>
			<split pos="left">
				<feature> 118 </feature>
				<threshold> 0.0 </threshold>
				<split pos="left">
					<feature> 179 </feature>
					<threshold> 0.0149562815 </threshold>
					<split pos="left">
						<output> -0.02476548 </output>
					</split>
					<split pos="right">
						<output> 0.119535275 </output>
					</split>
				</split>
				<split pos="right">
					<feature> 191 </feature>
					<threshold> 0.11602101 </threshold>
					<split pos="left">
						<feature> 33 </feature>
						<threshold> 0.0069532655 </threshold>
						<split pos="left">
							<feature> 119 </feature>
							<threshold> 0.5 </threshold>
							<split pos="left">
								<output> 0.09503862 </output>
							</split>
							<split pos="right">
								<feature> 73 </feature>
								<threshold> 0.756757 </threshold>
								<split pos="left">
									<output> 0.52603626 </output>
								</split>
								<split pos="right">
									<output> 0.20214239 </output>
								</split>
							</split>
						</split>
						<split pos="right">
							<output> 0.34605294 </output>
						</split>
					</split>
					<split pos="right">
						<output> 0.55914295 </output>
					</split>
				</split>
			</split>
			<split pos="right">
				<feature> 11 </feature>
				<threshold> 0.4998629 </threshold>
				<split pos="left">
					<output> 0.8347521 </output>
				</split>
				<split pos="right">
					<feature> 4 </feature>
					<threshold> 0.24609375 </threshold>
					<split pos="left">
						<output> 0.18396538 </output>
					</split>
					<split pos="right">
						<output> 0.49259079 </output>
					</split>
				</split>
			</split>
		</split>
	</tree>
	<tree id="17" weight="0.1">
		<split>
			<feature> 43 </feature>
			<threshold> 0.046875 </threshold>
			<split pos="left">
				<feature> 4 </feature>
				<threshold> 0.57421875 </threshold>
				<split pos="left">
					<feature> 18 </feature>
					<threshold> 0.984314 </threshold>
					<split pos="left">
						<feature> 57 </feature>
						<threshold> 0.0016468125 </threshold>
						<split pos="left">
							<output> 0.08223146 </output>
						</split>
						<split pos="right">
							<feature> 25 </feature>
							<threshold> 0.0 </threshold>
							<split pos="left">
								<feature> 51 </feature>
								<threshold> 0.17592858 </threshold>
								<split pos="left">
									<output> 0.13863577 </output>
								</split>
								<split pos="right">
									<output> 0.32416382 </output>
								</split>
							</split>
							<split pos="right">
								<output> 0.8066777 </output>
							</split>
						</split>
					</split>
					<split pos="right">
						<feature> 77 </feature>
						<threshold> 0.25255677 </threshold>
						<split pos="left">
							<output> -0.027505983 </output>
						</split>
						<split pos="right">
							<feature> 147 </feature>
							<threshold> 0.564706 </threshold>
							<split pos="left">
								<output> 0.060611587 </output>
							</split>
							<split pos="right">
								<output> 0.2553018 </output>
							</split>
						</split>
					</split>
				</split>
				<split pos="right">
					<feature> 2 </feature>
					<threshold> 0.0 </threshold>
					<split pos="left">
						<output> 0.1786744 </output>
					</split>
					<split pos="right">
						<output> 0.43663624 </output>
					</split>
				</split>
			</split>
			<split pos="right">
				<output> 0.6017383 </output>
			</split>
		</split>
	</tree>
	<tree id="18" weight="0.1">
		<split>
			<feature> 71 </feature>
			<threshold> 0.09414523 </threshold>
			<split pos="left">
				<feature> 191 </feature>
				<threshold> 0.14202571 </threshold>
				<split pos="left">
					<feature> 18 </feature>
					<threshold> 0.984314 </threshold>
					<split pos="left">
						<feature> 185 </feature>
						<threshold> 0.694118 </threshold>
						<split pos="left">
							<output> 0.3169382 </output>
						</split>
						<split pos="right">
							<feature> 68 </feature>
							<threshold> 0.09544577 </threshold>
							<split pos="left">
								<output> 0.04704837 </output>
							</split>
							<split pos="right">
								<feature> 15 </feature>
								<threshold> 0.086274 </threshold>
								<split pos="left">
									<output> 0.08947554 </output>
								</split>
								<split pos="right">
									<output> 0.31091854 </output>
								</split>
							</split>
						</split>
					</split>
					<split pos="right">
						<feature> 227 </feature>
						<threshold> 0.003540133 </threshold>
						<split pos="left">
							<feature> 150 </feature>
							<threshold> 0.82272285 </threshold>
							<split pos="left">
								<feature> 149 </feature>
								<threshold> 0.44921875 </threshold>
								<split pos="left">
									<output> -0.006884784 </output>
								</split>
								<split pos="right">
									<output> 0.1477744 </output>
								</split>
							</split>
							<split pos="right">
								<output> 0.24408115 </output>
							</split>
						</split>
						<split pos="right">
							<output> 0.19492872 </output>
						</split>
					</split>
				</split>
				<split pos="right">
					<output> 0.48571777 </output>
				</split>
			</split>
			<split pos="right">
				<output> 0.7011282 </output>
			</split>
		</split>
	</tree>
	<tree id="19" weight="0.1">
		<split>
			<feature> 199 </feature>
			<threshold> 0.45701894 </threshold>
			<split pos="left">
				<feature> 118 </feature>
				<threshold> 0.0 </threshold>
				<split pos="left">
					<feature> 133 </feature>
					<threshold> 0.0 </threshold>
					<split pos="left">
						<feature> 15 </feature>
						<threshold> 0.14902 </threshold>
						<split pos="left">
							<output> -0.011902124 </output>
						</split>
						<split pos="right">
							<output> 0.13424522 </output>
						</split>
					</split>
					<split pos="right">
						<output> -0.15769483 </output>
					</split>
				</split>
				<split pos="right">
					<feature> 2 </feature>
					<threshold> 0.0 </threshold>
					<split pos="left">
						<feature> 157 </feature>
						<threshold> 0.013024984 </threshold>
						<split pos="left">
							<output> 0.05640658 </output>
						</split>
						<split pos="right">
							<output> 0.31511533 </output>
						</split>
					</split>
					<split pos="right">
						<feature> 113 </feature>
						<threshold> 0.2648738 </threshold>
						<split pos="left">
							<feature> 211 </feature>
							<threshold> 0.498039 </threshold>
							<split pos="left">
								<output> 0.3533252 </output>
							</split>
							<split pos="right">
								<output> 0.15422638 </output>
							</split>
						</split>
						<split pos="right">
							<output> 0.86704504 </output>
						</split>
					</split>
				</split>
			</split>
			<split pos="right">
				<feature> 11 </feature>
				<threshold> 0.4998629 </threshold>
				<split pos="left">
					<output> 0.6685022 </output>
				</split>
				<split pos="right">
					<output> 0.2405892 </output>
				</split>
			</split>
		</split>
	</tree>
	<tree id="20" weight="0.1">
		<split>
			<feature> 181 </feature>
			<threshold> 0.0 </threshold>
			<split pos="left">
				<feature> 227 </feature>
				<threshold> 0.003540133 </threshold>
				<split pos="left">
					<feature> 25 </feature>
					<threshold> 0.0 </threshold>
					<split pos="left">
						<feature> 199 </feature>
						<threshold> 0.8005909 </threshold>
						<split pos="left">
							<feature> 150 </feature>
							<threshold> 0.8342027 </threshold>
							<split pos="left">
								<feature> 4 </feature>
								<threshold> 0.296875 </threshold>
								<split pos="left">
									<feature> 189 </feature>
									<threshold> 1.1E-4 </threshold>
									<split pos="left">
										<feature> 51 </feature>
										<threshold> 0.17592858 </threshold>
										<split pos="left">
											<output> -0.07076853 </output>
										</split>
										<split pos="right">
											<output> 0.041749373 </output>
										</split>
									</split>
									<split pos="right">
										<output> 1.1884471 </output>
									</split>
								</split>
								<split pos="right">
									<output> 0.16250187 </output>
								</split>
							</split>
							<split pos="right">
								<output> 0.26730728 </output>
							</split>
						</split>
						<split pos="right">
							<output> -0.9523782 </output>
						</split>
					</split>
					<split pos="right">
						<output> 0.39416626 </output>
					</split>
				</split>
				<split pos="right">
					<output> 0.20353858 </output>
				</split>
			</split>
			<split pos="right">
				<feature> 2 </feature>
				<threshold> 0.0 </threshold>
				<split pos="left">
					<output> 0.11779656 </output>
				</split>
				<split pos="right">
					<output> 0.40166432 </output>
				</split>
			</split>
		</split>
	</tree>
	<tree id="21" weight="0.1">
		<split>
			<feature> 71 </feature>
			<threshold> 0.016231934 </threshold>
			<split pos="left">
				<feature> 15 </feature>
				<threshold> 0.05098 </threshold>
				<split pos="left">
					<output> -0.011018538 </output>
				</split>
				<split pos="right">
					<feature> 15 </feature>
					<threshold> 0.054902 </threshold>
					<split pos="left">
						<output> 0.61828506 </output>
					</split>
					<split pos="right">
						<feature> 4 </feature>
						<threshold> 0.57421875 </threshold>
						<split pos="left">
							<feature> 74 </feature>
							<threshold> 0.34902 </threshold>
							<split pos="left">
								<output> 0.22900201 </output>
							</split>
							<split pos="right">
								<feature> 150 </feature>
								<threshold> 0.6849646 </threshold>
								<split pos="left">
									<feature> 191 </feature>
									<threshold> 0.19003439 </threshold>
									<split pos="left">
										<feature> 51 </feature>
										<threshold> 0.058884166 </threshold>
										<split pos="left">
											<output> -0.5612825 </output>
										</split>
										<split pos="right">
											<feature> 199 </feature>
											<threshold> 0.748731 </threshold>
											<split pos="left">
												<output> 0.020393413 </output>
											</split>
											<split pos="right">
												<output> -0.8605023 </output>
											</split>
										</split>
									</split>
									<split pos="right">
										<output> 0.55092233 </output>
									</split>
								</split>
								<split pos="right">
									<output> 0.1472819 </output>
								</split>
							</split>
						</split>
						<split pos="right">
							<output> 0.257631 </output>
						</split>
					</split>
				</split>
			</split>
			<split pos="right">
				<output> 0.351373 </output>
			</split>
		</split>
	</tree>
	<tree id="22" weight="0.1">
		<split>
			<feature> 30 </feature>
			<threshold> 0.3403203 </threshold>
			<split pos="left">
				<feature> 181 </feature>
				<threshold> 0.0 </threshold>
				<split pos="left">
					<feature> 199 </feature>
					<threshold> 0.8005909 </threshold>
					<split pos="left">
						<feature> 116 </feature>
						<threshold> 0.0 </threshold>
						<split pos="left">
							<feature> 57 </feature>
							<threshold> 0.0016468125 </threshold>
							<split pos="left">
								<output> 0.027978424 </output>
							</split>
							<split pos="right">
								<feature> 68 </feature>
								<threshold> 0.022025952 </threshold>
								<split pos="left">
									<output> 0.39085698 </output>
								</split>
								<split pos="right">
									<feature> 15 </feature>
									<threshold> 0.12549 </threshold>
									<split pos="left">
										<output> 0.027416471 </output>
									</split>
									<split pos="right">
										<feature> 51 </feature>
										<threshold> 0.18356192 </threshold>
										<split pos="left">
											<output> 0.1178667 </output>
										</split>
										<split pos="right">
											<output> 0.2610731 </output>
										</split>
									</split>
								</split>
							</split>
						</split>
						<split pos="right">
							<output> -0.060533836 </output>
						</split>
					</split>
					<split pos="right">
						<output> -0.8263211 </output>
					</split>
				</split>
				<split pos="right">
					<feature> 2 </feature>
					<threshold> 0.0 </threshold>
					<split pos="left">
						<output> 0.065677114 </output>
					</split>
					<split pos="right">
						<output> 0.32084846 </output>
					</split>
				</split>
			</split>
			<split pos="right">
				<output> 0.55846655 </output>
			</split>
		</split>
	</tree>
	<tree id="23" weight="0.1">
		<split>
			<feature> 199 </feature>
			<threshold> 0.45701894 </threshold>
			<split pos="left">
				<feature> 58 </feature>
				<threshold> 0.0 </threshold>
				<split pos="left">
					<feature> 199 </feature>
					<threshold> 0.43757132 </threshold>
					<split pos="left">
						<feature> 14 </feature>
						<threshold> 0.007843 </threshold>
						<split pos="left">
							<feature> 2 </feature>
							<threshold> 0.0 </threshold>
							<split pos="left">
								<output> 0.030321715 </output>
							</split>
							<split pos="right">
								<output> 0.22319268 </output>
							</split>
						</split>
						<split pos="right">
							<feature> 159 </feature>
							<threshold> 0.0077999844 </threshold>
							<split pos="left">
								<feature> 154 </feature>
								<threshold> 0.79798317 </threshold>
								<split pos="left">
									<feature> 147 </feature>
									<threshold> 0.529412 </threshold>
									<split pos="left">
										<output> -0.056083478 </output>
									</split>
									<split pos="right">
										<output> 0.05752275 </output>
									</split>
								</split>
								<split pos="right">
									<output> 0.20977533 </output>
								</split>
							</split>
							<split pos="right">
								<output> 0.23518409 </output>
							</split>
						</split>
					</split>
					<split pos="right">
						<output> -0.37050095 </output>
					</split>
				</split>
				<split pos="right">
					<output> 0.23516962 </output>
				</split>
			</split>
			<split pos="right">
				<feature> 3 </feature>
				<threshold> 0.1015625 </threshold>
				<split pos="left">
					<output> 0.17953144 </output>
				</split>
				<split pos="right">
					<output> 0.64261734 </output>
				</split>
			</split>
		</split>
	</tree>
	<tree id="24" weight="0.1">
		<split>
			<feature> 191 </feature>
			<threshold> 0.26404777 </threshold>
			<split pos="left">
				<feature> 199 </feature>
				<threshold> 0.45701894 </threshold>
				<split pos="left">
					<feature> 118 </feature>
					<threshold> 0.0 </threshold>
					<split pos="left">
						<feature> 153 </feature>
						<threshold> 0.0 </threshold>
						<split pos="left">
							<feature> 68 </feature>
							<threshold> 0.2863373 </threshold>
							<split pos="left">
								<output> -0.049608648 </output>
							</split>
							<split pos="right">
								<output> 0.09922112 </output>
							</split>
						</split>
						<split pos="right">
							<output> 0.13918555 </output>
						</split>
					</split>
					<split pos="right">
						<feature> 26 </feature>
						<threshold> 0.09047916 </threshold>
						<split pos="left">
							<feature> 69 </feature>
							<threshold> 0.24607024 </threshold>
							<split pos="left">
								<feature> 233 </feature>
								<threshold> 0.55331135 </threshold>
								<split pos="left">
									<output> 0.05953039 </output>
								</split>
								<split pos="right">
									<output> 0.19954711 </output>
								</split>
							</split>
							<split pos="right">
								<output> 0.29958364 </output>
							</split>
						</split>
						<split pos="right">
							<output> 0.004106173 </output>
						</split>
					</split>
				</split>
				<split pos="right">
					<feature> 11 </feature>
					<threshold> 0.4998629 </threshold>
					<split pos="left">
						<output> 0.4921652 </output>
					</split>
					<split pos="right">
						<output> 0.13355553 </output>
					</split>
				</split>
			</split>
			<split pos="right">
				<output> 0.68243706 </output>
			</split>
		</split>
	</tree>
	<tree id="25" weight="0.1">
		<split>
			<feature> 101 </feature>
			<threshold> 0.51036555 </threshold>
			<split pos="left">
				<feature> 199 </feature>
				<threshold> 0.45701894 </threshold>
				<split pos="left">
					<feature> 120 </feature>
					<threshold> 0.8 </threshold>
					<split pos="left">
						<feature> 154 </feature>
						<threshold> 0.6701509 </threshold>
						<split pos="left">
							<feature> 227 </feature>
							<threshold> 0.014160532 </threshold>
							<split pos="left">
								<feature> 230 </feature>
								<threshold> 0.24162196 </threshold>
								<split pos="left">
									<feature> 199 </feature>
									<threshold> 0.42460623 </threshold>
									<split pos="left">
										<feature> 181 </feature>
										<threshold> 0.03645856 </threshold>
										<split pos="left">
											<output> 0.015634136 </output>
										</split>
										<split pos="right">
											<output> 0.20671415 </output>
										</split>
									</split>
									<split pos="right">
										<output> -0.30664113 </output>
									</split>
								</split>
								<split pos="right">
									<output> 0.5451166 </output>
								</split>
							</split>
							<split pos="right">
								<output> 0.21412136 </output>
							</split>
						</split>
						<split pos="right">
							<output> 0.23668985 </output>
						</split>
					</split>
					<split pos="right">
						<feature> 162 </feature>
						<threshold> 0.17522694 </threshold>
						<split pos="left">
							<output> -0.07077536 </output>
						</split>
						<split pos="right">
							<output> 0.04689108 </output>
						</split>
					</split>
				</split>
				<split pos="right">
					<output> 0.17289123 </output>
				</split>
			</split>
			<split pos="right">
				<output> 0.8692017 </output>
			</split>
		</split>
	</tree>
	<tree id="26" weight="0.1">
		<split>
			<feature> 227 </feature>
			<threshold> 0.13098496 </threshold>
			<split pos="left">
				<feature> 113 </feature>
				<threshold> 0.49421477 </threshold>
				<split pos="left">
					<feature> 199 </feature>
					<threshold> 0.8005909 </threshold>
					<split pos="left">
						<feature> 116 </feature>
						<threshold> 0.0 </threshold>
						<split pos="left">
							<feature> 166 </feature>
							<threshold> 0.278431 </threshold>
							<split pos="left">
								<feature> 199 </feature>
								<threshold> 0.4959142 </threshold>
								<split pos="left">
									<feature> 154 </feature>
									<threshold> 0.51907635 </threshold>
									<split pos="left">
										<output> 0.042083282 </output>
									</split>
									<split pos="right">
										<output> 0.16893761 </output>
									</split>
								</split>
								<split pos="right">
									<output> 0.26091212 </output>
								</split>
							</split>
							<split pos="right">
								<feature> 2 </feature>
								<threshold> 0.0 </threshold>
								<split pos="left">
									<feature> 134 </feature>
									<threshold> 0.435294 </threshold>
									<split pos="left">
										<output> -0.06144895 </output>
									</split>
									<split pos="right">
										<output> 0.31389683 </output>
									</split>
								</split>
								<split pos="right">
									<output> 0.10612063 </output>
								</split>
							</split>
						</split>
						<split pos="right">
							<output> -0.06255631 </output>
						</split>
					</split>
					<split pos="right">
						<output> -0.8652947 </output>
					</split>
				</split>
				<split pos="right">
					<output> 0.7511941 </output>
				</split>
			</split>
			<split pos="right">
				<output> 0.36414722 </output>
			</split>
		</split>
	</tree>
	<tree id="27" weight="0.1">
		<split>
			<feature> 5 </feature>
			<threshold> 0.38272712 </threshold>
			<split pos="left">
				<feature> 161 </feature>
				<threshold> 0.023620214 </threshold>
				<split pos="left">
					<feature> 15 </feature>
					<threshold> 0.05098 </threshold>
					<split pos="left">
						<output> -0.046484496 </output>
					</split>
					<split pos="right">
						<feature> 15 </feature>
						<threshold> 0.054902 </threshold>
						<split pos="left">
							<output> 0.4645973 </output>
						</split>
						<split pos="right">
							<feature> 4 </feature>
							<threshold> 0.19921875 </threshold>
							<split pos="left">
								<feature> 51 </feature>
								<threshold> 0.21918419 </threshold>
								<split pos="left">
									<feature> 73 </feature>
									<threshold> 0.706081 </threshold>
									<split pos="left">
										<output> 0.2388322 </output>
									</split>
									<split pos="right">
										<feature> 150 </feature>
										<threshold> 0.80358976 </threshold>
										<split pos="left">
											<output> -0.0741059 </output>
										</split>
										<split pos="right">
											<output> 0.07355672 </output>
										</split>
									</split>
								</split>
								<split pos="right">
									<feature> 221 </feature>
									<threshold> 0.0 </threshold>
									<split pos="left">
										<output> -0.050199535 </output>
									</split>
									<split pos="right">
										<output> 0.12762812 </output>
									</split>
								</split>
							</split>
							<split pos="right">
								<output> 0.14849108 </output>
							</split>
						</split>
					</split>
				</split>
				<split pos="right">
					<output> 0.2526292 </output>
				</split>
			</split>
			<split pos="right">
				<output> 0.71129775 </output>
			</split>
		</split>
	</tree>
	<tree id="28" weight="0.1">
		<split>
			<feature> 122 </feature>
			<threshold> 0.19586764 </threshold>
			<split pos="left">
				<feature> 185 </feature>
				<threshold> 0.694118 </threshold>
				<split pos="left">
					<feature> 77 </feature>
					<threshold> 0.0 </threshold>
					<split pos="left">
						<output> 0.4766185 </output>
					</split>
					<split pos="right">
						<feature> 166 </feature>
						<threshold> 0.372549 </threshold>
						<split pos="left">
							<feature> 181 </feature>
							<threshold> 0.0 </threshold>
							<split pos="left">
								<output> 0.070692405 </output>
							</split>
							<split pos="right">
								<output> 0.23753199 </output>
							</split>
						</split>
						<split pos="right">
							<output> -0.079482764 </output>
						</split>
					</split>
				</split>
				<split pos="right">
					<feature> 15 </feature>
					<threshold> 0.121569 </threshold>
					<split pos="left">
						<feature> 222 </feature>
						<threshold> 0.32763952 </threshold>
						<split pos="left">
							<output> -0.10624497 </output>
						</split>
						<split pos="right">
							<output> 0.019577848 </output>
						</split>
					</split>
					<split pos="right">
						<feature> 77 </feature>
						<threshold> 0.37118194 </threshold>
						<split pos="left">
							<output> -0.019633684 </output>
						</split>
						<split pos="right">
							<feature> 147 </feature>
							<threshold> 0.682353 </threshold>
							<split pos="left">
								<output> 0.07833481 </output>
							</split>
							<split pos="right">
								<output> 0.3039149 </output>
							</split>
						</split>
					</split>
				</split>
			</split>
			<split pos="right">
				<output> 0.20960417 </output>
			</split>
		</split>
	</tree>
	<tree id="29" weight="0.1">
		<split>
			<feature> 113 </feature>
			<threshold> 0.2713341 </threshold>
			<split pos="left">
				<feature> 43 </feature>
				<threshold> 0.484375 </threshold>
				<split pos="left">
					<feature> 26 </feature>
					<threshold> 0.2875943 </threshold>
					<split pos="left">
						<feature> 221 </feature>
						<threshold> 0.0 </threshold>
						<split pos="left">
							<output> -0.03908377 </output>
						</split>
						<split pos="right">
							<feature> 211 </feature>
							<threshold> 0.866667 </threshold>
							<split pos="left">
								<feature> 15 </feature>
								<threshold> 0.05098 </threshold>
								<split pos="left">
									<output> 4.8605027E-5 </output>
								</split>
								<split pos="right">
									<feature> 15 </feature>
									<threshold> 0.054902 </threshold>
									<split pos="left">
										<output> 0.743599 </output>
									</split>
									<split pos="right">
										<feature> 104 </feature>
										<threshold> 0.0 </threshold>
										<split pos="left">
											<feature> 144 </feature>
											<threshold> 0.6963578 </threshold>
											<split pos="left">
												<output> 0.13199773 </output>
											</split>
											<split pos="right">
												<output> -0.09917114 </output>
											</split>
										</split>
										<split pos="right">
											<output> -0.32136503 </output>
										</split>
									</split>
								</split>
							</split>
							<split pos="right">
								<output> 0.0032468801 </output>
							</split>
						</split>
					</split>
					<split pos="right">
						<output> -0.10755245 </output>
					</split>
				</split>
				<split pos="right">
					<output> 0.61212003 </output>
				</split>
			</split>
			<split pos="right">
				<output> 0.28742996 </output>
			</split>
		</split>
	</tree>
	<tree id="30" weight="0.1">
		<split>
			<feature> 30 </feature>
			<threshold> 0.3403203 </threshold>
			<split pos="left">
				<feature> 26 </feature>
				<threshold> 0.2875943 </threshold>
				<split pos="left">
					<feature> 210 </feature>
					<threshold> 0.898039 </threshold>
					<split pos="left">
						<feature> 93 </feature>
						<threshold> 0.142857 </threshold>
						<split pos="left">
							<output> 0.3277617 </output>
						</split>
						<split pos="right">
							<feature> 165 </feature>
							<threshold> 0.064232 </threshold>
							<split pos="left">
								<output> 0.1446817 </output>
							</split>
							<split pos="right">
								<output> 3.4685087E-4 </output>
							</split>
						</split>
					</split>
					<split pos="right">
						<feature> 37 </feature>
						<threshold> 0.003488375 </threshold>
						<split pos="left">
							<feature> 147 </feature>
							<threshold> 0.478431 </threshold>
							<split pos="left">
								<output> -0.07583173 </output>
							</split>
							<split pos="right">
								<feature> 68 </feature>
								<threshold> 0.04038091 </threshold>
								<split pos="left">
									<output> -0.064972505 </output>
								</split>
								<split pos="right">
									<output> 0.10365066 </output>
								</split>
							</split>
						</split>
						<split pos="right">
							<feature> 122 </feature>
							<threshold> 0.19586764 </threshold>
							<split pos="left">
								<output> 0.059289724 </output>
							</split>
							<split pos="right">
								<output> 0.24727266 </output>
							</split>
						</split>
					</split>
				</split>
				<split pos="right">
					<output> -0.08945 </output>
				</split>
			</split>
			<split pos="right">
				<output> 0.35239363 </output>
			</split>
		</split>
	</tree>
	<tree id="31" weight="0.1">
		<split>
			<feature> 189 </feature>
			<threshold> 4.0E-6 </threshold>
			<split pos="left">
				<feature> 104 </feature>
				<threshold> 0.0 </threshold>
				<split pos="left">
					<feature> 199 </feature>
					<threshold> 0.8005909 </threshold>
					<split pos="left">
						<feature> 116 </feature>
						<threshold> 0.0 </threshold>
						<split pos="left">
							<feature> 31 </feature>
							<threshold> 0.04543167 </threshold>
							<split pos="left">
								<feature> 166 </feature>
								<threshold> 0.258824 </threshold>
								<split pos="left">
									<feature> 166 </feature>
									<threshold> 0.254902 </threshold>
									<split pos="left">
										<feature> 128 </feature>
										<threshold> 0.780392 </threshold>
										<split pos="left">
											<output> 0.076913685 </output>
										</split>
										<split pos="right">
											<output> -0.55627286 </output>
										</split>
									</split>
									<split pos="right">
										<output> 0.51102185 </output>
									</split>
								</split>
								<split pos="right">
									<feature> 15 </feature>
									<threshold> 0.117647 </threshold>
									<split pos="left">
										<output> -0.09325084 </output>
									</split>
									<split pos="right">
										<output> 0.04843572 </output>
									</split>
								</split>
							</split>
							<split pos="right">
								<output> 0.13456655 </output>
							</split>
						</split>
						<split pos="right">
							<output> -0.06974698 </output>
						</split>
					</split>
					<split pos="right">
						<output> -0.7046457 </output>
					</split>
				</split>
				<split pos="right">
					<output> -0.25841582 </output>
				</split>
			</split>
			<split pos="right">
				<output> 0.2680259 </output>
			</split>
		</split>
	</tree>
	<tree id="32" weight="0.1">
		<split>
			<feature> 101 </feature>
			<threshold> 0.5135957 </threshold>
			<split pos="left">
				<feature> 78 </feature>
				<threshold> 0.0 </threshold>
				<split pos="left">
					<feature> 185 </feature>
					<threshold> 0.698039 </threshold>
					<split pos="left">
						<feature> 51 </feature>
						<threshold> 0.119950734 </threshold>
						<split pos="left">
							<output> 0.35434166 </output>
						</split>
						<split pos="right">
							<output> 0.08974243 </output>
						</split>
					</split>
					<split pos="right">
						<feature> 157 </feature>
						<threshold> 0.006512492 </threshold>
						<split pos="left">
							<feature> 5 </feature>
							<threshold> 0.40733102 </threshold>
							<split pos="left">
								<feature> 144 </feature>
								<threshold> 0.67340094 </threshold>
								<split pos="left">
									<feature> 14 </feature>
									<threshold> 0.015686 </threshold>
									<split pos="left">
										<feature> 31 </feature>
										<threshold> 0.1287231 </threshold>
										<split pos="left">
											<output> 0.015608786 </output>
										</split>
										<split pos="right">
											<output> 0.19651408 </output>
										</split>
									</split>
									<split pos="right">
										<output> -0.060286175 </output>
									</split>
								</split>
								<split pos="right">
									<output> -0.19331807 </output>
								</split>
							</split>
							<split pos="right">
								<output> 0.832265 </output>
							</split>
						</split>
						<split pos="right">
							<output> 0.18333887 </output>
						</split>
					</split>
				</split>
				<split pos="right">
					<output> -0.02258814 </output>
				</split>
			</split>
			<split pos="right">
				<output> 0.6454528 </output>
			</split>
		</split>
	</tree>
	<tree id="33" weight="0.1">
		<split>
			<feature> 212 </feature>
			<threshold> 0.19552836 </threshold>
			<split pos="left">
				<feature> 211 </feature>
				<threshold> 0.870588 </threshold>
				<split pos="left">
					<feature> 2 </feature>
					<threshold> 0.0 </threshold>
					<split pos="left">
						<feature> 156 </feature>
						<threshold> 0.8 </threshold>
						<split pos="left">
							<feature> 25 </feature>
							<threshold> 0.0 </threshold>
							<split pos="left">
								<feature> 15 </feature>
								<threshold> 0.14902 </threshold>
								<split pos="left">
									<output> -0.0544059 </output>
								</split>
								<split pos="right">
									<output> 0.1052267 </output>
								</split>
							</split>
							<split pos="right">
								<output> 0.36607233 </output>
							</split>
						</split>
						<split pos="right">
							<output> -0.22691157 </output>
						</split>
					</split>
					<split pos="right">
						<feature> 227 </feature>
						<threshold> 0.02478093 </threshold>
						<split pos="left">
							<feature> 119 </feature>
							<threshold> 0.0 </threshold>
							<split pos="left">
								<output> 0.00713354 </output>
							</split>
							<split pos="right">
								<output> 0.13579962 </output>
							</split>
						</split>
						<split pos="right">
							<output> 0.39484292 </output>
						</split>
					</split>
				</split>
				<split pos="right">
					<feature> 157 </feature>
					<threshold> 0.058612432 </threshold>
					<split pos="left">
						<output> -0.045126427 </output>
					</split>
					<split pos="right">
						<output> 0.47219896 </output>
					</split>
				</split>
			</split>
			<split pos="right">
				<output> 0.21180747 </output>
			</split>
		</split>
	</tree>
	<tree id="34" weight="0.1">
		<split>
			<feature> 97 </feature>
			<threshold> 0.0029402701 </threshold>
			<split pos="left">
				<feature> 26 </feature>
				<threshold> 0.2875943 </threshold>
				<split pos="left">
					<feature> 9 </feature>
					<threshold> 0.11228346 </threshold>
					<split pos="left">
						<feature> 211 </feature>
						<threshold> 0.866667 </threshold>
						<split pos="left">
							<feature> 144 </feature>
							<threshold> 0.41704947 </threshold>
							<split pos="left">
								<feature> 199 </feature>
								<threshold> 0.4959142 </threshold>
								<split pos="left">
									<feature> 66 </feature>
									<threshold> 0.75 </threshold>
									<split pos="left">
										<feature> 163 </feature>
										<threshold> 0.0 </threshold>
										<split pos="left">
											<feature> 71 </feature>
											<threshold> 0.0032463868 </threshold>
											<split pos="left">
												<output> 0.0072014146 </output>
											</split>
											<split pos="right">
												<output> 0.12623721 </output>
											</split>
										</split>
										<split pos="right">
											<output> -0.16512887 </output>
										</split>
									</split>
									<split pos="right">
										<output> 0.1517703 </output>
									</split>
								</split>
								<split pos="right">
									<output> 0.18955937 </output>
								</split>
							</split>
							<split pos="right">
								<output> -0.0709069 </output>
							</split>
						</split>
						<split pos="right">
							<output> -0.04203823 </output>
						</split>
					</split>
					<split pos="right">
						<output> 0.15274432 </output>
					</split>
				</split>
				<split pos="right">
					<output> -0.08799928 </output>
				</split>
			</split>
			<split pos="right">
				<output> 0.63151586 </output>
			</split>
		</split>
	</tree>
	<tree id="35" weight="0.1">
		<split>
			<feature> 113 </feature>
			<threshold> 0.2713341 </threshold>
			<split pos="left">
				<feature> 43 </feature>
				<threshold> 0.484375 </threshold>
				<split pos="left">
					<feature> 199 </feature>
					<threshold> 0.8005909 </threshold>
					<split pos="left">
						<feature> 72 </feature>
						<threshold> 0.498039 </threshold>
						<split pos="left">
							<feature> 116 </feature>
							<threshold> 0.0 </threshold>
							<split pos="left">
								<feature> 129 </feature>
								<threshold> 0.3891995 </threshold>
								<split pos="left">
									<output> -0.014970509 </output>
								</split>
								<split pos="right">
									<feature> 31 </feature>
									<threshold> 0.0 </threshold>
									<split pos="left">
										<feature> 166 </feature>
										<threshold> 0.258824 </threshold>
										<split pos="left">
											<output> 0.10091323 </output>
										</split>
										<split pos="right">
											<feature> 28 </feature>
											<threshold> 0.78430486 </threshold>
											<split pos="left">
												<output> -0.04186166 </output>
											</split>
											<split pos="right">
												<output> 0.21584885 </output>
											</split>
										</split>
									</split>
									<split pos="right">
										<output> 0.15969153 </output>
									</split>
								</split>
							</split>
							<split pos="right">
								<output> -0.073854536 </output>
							</split>
						</split>
						<split pos="right">
							<output> -0.07748033 </output>
						</split>
					</split>
					<split pos="right">
						<output> -0.689873 </output>
					</split>
				</split>
				<split pos="right">
					<output> 0.425911 </output>
				</split>
			</split>
			<split pos="right">
				<output> 0.21366982 </output>
			</split>
		</split>
	</tree>
	<tree id="36" weight="0.1">
		<split>
			<feature> 204 </feature>
			<threshold> 0.011131781 </threshold>
			<split pos="left">
				<feature> 120 </feature>
				<threshold> 0.776471 </threshold>
				<split pos="left">
					<feature> 120 </feature>
					<threshold> 0.764706 </threshold>
					<split pos="left">
						<feature> 43 </feature>
						<threshold> 0.0 </threshold>
						<split pos="left">
							<feature> 51 </feature>
							<threshold> 0.15811744 </threshold>
							<split pos="left">
								<output> -0.11855977 </output>
							</split>
							<split pos="right">
								<feature> 154 </feature>
								<threshold> 0.06972658 </threshold>
								<split pos="left">
									<output> -0.064921595 </output>
								</split>
								<split pos="right">
									<output> 0.09006446 </output>
								</split>
							</split>
						</split>
						<split pos="right">
							<output> 0.16296451 </output>
						</split>
					</split>
					<split pos="right">
						<output> 0.27075577 </output>
					</split>
				</split>
				<split pos="right">
					<feature> 43 </feature>
					<threshold> 0.28125 </threshold>
					<split pos="left">
						<feature> 157 </feature>
						<threshold> 0.058612432 </threshold>
						<split pos="left">
							<feature> 44 </feature>
							<threshold> 0.0 </threshold>
							<split pos="left">
								<output> -0.059159506 </output>
							</split>
							<split pos="right">
								<output> 0.037955526 </output>
							</split>
						</split>
						<split pos="right">
							<output> 0.3117947 </output>
						</split>
					</split>
					<split pos="right">
						<output> -0.5414042 </output>
					</split>
				</split>
			</split>
			<split pos="right">
				<output> 0.23562749 </output>
			</split>
		</split>
	</tree>
	<tree id="37" weight="0.1">
		<split>
			<feature> 128 </feature>
			<threshold> 0.494118 </threshold>
			<split pos="left">
				<feature> 189 </feature>
				<threshold> 4.0E-6 </threshold>
				<split pos="left">
					<feature> 12 </feature>
					<threshold> 0.0 </threshold>
					<split pos="left">
						<feature> 28 </feature>
						<threshold> 0.24192438 </threshold>
						<split pos="left">
							<output> 0.16874135 </output>
						</split>
						<split pos="right">
							<feature> 172 </feature>
							<threshold> 0.6 </threshold>
							<split pos="left">
								<output> -0.21150236 </output>
							</split>
							<split pos="right">
								<feature> 147 </feature>
								<threshold> 0.486275 </threshold>
								<split pos="left">
									<feature> 73 </feature>
									<threshold> 0.962838 </threshold>
									<split pos="left">
										<feature> 210 </feature>
										<threshold> 0.992157 </threshold>
										<split pos="left">
											<output> 0.050283328 </output>
										</split>
										<split pos="right">
											<output> -0.082894586 </output>
										</split>
									</split>
									<split pos="right">
										<output> -0.09008403 </output>
									</split>
								</split>
								<split pos="right">
									<feature> 179 </feature>
									<threshold> 0.029912563 </threshold>
									<split pos="left">
										<output> -0.01507201 </output>
									</split>
									<split pos="right">
										<output> 0.10204432 </output>
									</split>
								</split>
							</split>
						</split>
					</split>
					<split pos="right">
						<output> 0.15398414 </output>
					</split>
				</split>
				<split pos="right">
					<output> 0.2243814 </output>
				</split>
			</split>
			<split pos="right">
				<output> -0.08582361 </output>
			</split>
		</split>
	</tree>
	<tree id="38" weight="0.1">
		<split>
			<feature> 104 </feature>
			<threshold> 0.0 </threshold>
			<split pos="left">
				<feature> 101 </feature>
				<threshold> 0.5426671 </threshold>
				<split pos="left">
					<feature> 134 </feature>
					<threshold> 0.368627 </threshold>
					<split pos="left">
						<feature> 72 </feature>
						<threshold> 0.498039 </threshold>
						<split pos="left">
							<feature> 116 </feature>
							<threshold> 0.0 </threshold>
							<split pos="left">
								<feature> 2 </feature>
								<threshold> 0.0 </threshold>
								<split pos="left">
									<feature> 233 </feature>
									<threshold> 0.61941767 </threshold>
									<split pos="left">
										<feature> 199 </feature>
										<threshold> 0.4959142 </threshold>
										<split pos="left">
											<output> -0.009150428 </output>
										</split>
										<split pos="right">
											<output> 0.19836149 </output>
										</split>
									</split>
									<split pos="right">
										<output> -0.2550557 </output>
									</split>
								</split>
								<split pos="right">
									<feature> 195 </feature>
									<threshold> 0.0 </threshold>
									<split pos="left">
										<output> 0.021765657 </output>
									</split>
									<split pos="right">
										<output> 0.17678955 </output>
									</split>
								</split>
							</split>
							<split pos="right">
								<output> -0.082381114 </output>
							</split>
						</split>
						<split pos="right">
							<output> -0.09374705 </output>
						</split>
					</split>
					<split pos="right">
						<output> 0.12389342 </output>
					</split>
				</split>
				<split pos="right">
					<output> 0.58630514 </output>
				</split>
			</split>
			<split pos="right">
				<output> -0.2370393 </output>
			</split>
		</split>
	</tree>
	<tree id="39" weight="0.1">
		<split>
			<feature> 67 </feature>
			<threshold> 0.03125 </threshold>
			<split pos="left">
				<feature> 26 </feature>
				<threshold> 0.26174304 </threshold>
				<split pos="left">
					<feature> 161 </feature>
					<threshold> 0.006748633 </threshold>
					<split pos="left">
						<feature> 211 </feature>
						<threshold> 0.619608 </threshold>
						<split pos="left">
							<feature> 211 </feature>
							<threshold> 0.607843 </threshold>
							<split pos="left">
								<feature> 51 </feature>
								<threshold> 0.2140953 </threshold>
								<split pos="left">
									<output> -0.031357273 </output>
								</split>
								<split pos="right">
									<output> 0.08006719 </output>
								</split>
							</split>
							<split pos="right">
								<output> 0.5640889 </output>
							</split>
						</split>
						<split pos="right">
							<feature> 15 </feature>
							<threshold> 0.054902 </threshold>
							<split pos="left">
								<output> -0.17933252 </output>
							</split>
							<split pos="right">
								<feature> 174 </feature>
								<threshold> 0.050735094 </threshold>
								<split pos="left">
									<feature> 51 </feature>
									<threshold> 0.2039175 </threshold>
									<split pos="left">
										<output> -0.09642393 </output>
									</split>
									<split pos="right">
										<output> 0.013700013 </output>
									</split>
								</split>
								<split pos="right">
									<output> 0.10154464 </output>
								</split>
							</split>
						</split>
					</split>
					<split pos="right">
						<output> 0.14181419 </output>
					</split>
				</split>
				<split pos="right">
					<output> -0.11182633 </output>
				</split>
			</split>
			<split pos="right">
				<output> 0.079558834 </output>
			</split>
		</split>
	</tree>
	<tree id="40" weight="0.1">
		<split>
			<feature> 213 </feature>
			<threshold> 0.010695077 </threshold>
			<split pos="left">
				<feature> 51 </feature>
				<threshold> 0.025806442 </threshold>
				<split pos="left">
					<output> -0.48076704 </output>
				</split>
				<split pos="right">
					<feature> 28 </feature>
					<threshold> 0.0039020078 </threshold>
					<split pos="left">
						<output> 0.5235784 </output>
					</split>
					<split pos="right">
						<feature> 129 </feature>
						<threshold> 0.13980949 </threshold>
						<split pos="left">
							<output> -0.105983935 </output>
						</split>
						<split pos="right">
							<feature> 15 </feature>
							<threshold> 0.05098 </threshold>
							<split pos="left">
								<output> -0.046626635 </output>
							</split>
							<split pos="right">
								<feature> 15 </feature>
								<threshold> 0.054902 </threshold>
								<split pos="left">
									<output> 0.27936667 </output>
								</split>
								<split pos="right">
									<feature> 14 </feature>
									<threshold> 0.007843 </threshold>
									<split pos="left">
										<output> 0.07852592 </output>
									</split>
									<split pos="right">
										<feature> 147 </feature>
										<threshold> 0.705882 </threshold>
										<split pos="left">
											<feature> 133 </feature>
											<threshold> 0.0 </threshold>
											<split pos="left">
												<output> -2.9651428E-4 </output>
											</split>
											<split pos="right">
												<output> -0.16210105 </output>
											</split>
										</split>
										<split pos="right">
											<output> 0.14265159 </output>
										</split>
									</split>
								</split>
							</split>
						</split>
					</split>
				</split>
			</split>
			<split pos="right">
				<output> 0.6978905 </output>
			</split>
		</split>
	</tree>
	<tree id="41" weight="0.1">
		<split>
			<feature> 5 </feature>
			<threshold> 0.38272712 </threshold>
			<split pos="left">
				<feature> 128 </feature>
				<threshold> 0.494118 </threshold>
				<split pos="left">
					<feature> 120 </feature>
					<threshold> 0.776471 </threshold>
					<split pos="left">
						<feature> 120 </feature>
						<threshold> 0.764706 </threshold>
						<split pos="left">
							<feature> 119 </feature>
							<threshold> 0.0 </threshold>
							<split pos="left">
								<output> -0.015775586 </output>
							</split>
							<split pos="right">
								<output> 0.09106287 </output>
							</split>
						</split>
						<split pos="right">
							<output> 0.2140222 </output>
						</split>
					</split>
					<split pos="right">
						<feature> 81 </feature>
						<threshold> 0.0 </threshold>
						<split pos="left">
							<feature> 67 </feature>
							<threshold> 0.03125 </threshold>
							<split pos="left">
								<feature> 51 </feature>
								<threshold> 0.058884166 </threshold>
								<split pos="left">
									<output> -0.42060342 </output>
								</split>
								<split pos="right">
									<feature> 25 </feature>
									<threshold> 0.0 </threshold>
									<split pos="left">
										<output> -0.012304623 </output>
									</split>
									<split pos="right">
										<output> -0.27396104 </output>
									</split>
								</split>
							</split>
							<split pos="right">
								<output> 0.10189459 </output>
							</split>
						</split>
						<split pos="right">
							<output> -0.14289753 </output>
						</split>
					</split>
				</split>
				<split pos="right">
					<output> -0.079697706 </output>
				</split>
			</split>
			<split pos="right">
				<output> 0.39822656 </output>
			</split>
		</split>
	</tree>
	<tree id="42" weight="0.1">
		<split>
			<feature> 104 </feature>
			<threshold> 0.0 </threshold>
			<split pos="left">
				<feature> 113 </feature>
				<threshold> 0.2713341 </threshold>
				<split pos="left">
					<feature> 199 </feature>
					<threshold> 0.8005909 </threshold>
					<split pos="left">
						<feature> 33 </feature>
						<threshold> 0.33027992 </threshold>
						<split pos="left">
							<feature> 48 </feature>
							<threshold> 0.025640864 </threshold>
							<split pos="left">
								<feature> 14 </feature>
								<threshold> 0.011765 </threshold>
								<split pos="left">
									<feature> 199 </feature>
									<threshold> 0.45701894 </threshold>
									<split pos="left">
										<feature> 199 </feature>
										<threshold> 0.43433005 </threshold>
										<split pos="left">
											<feature> 174 </feature>
											<threshold> 0.0 </threshold>
											<split pos="left">
												<output> 0.010416941 </output>
											</split>
											<split pos="right">
												<output> 0.11351689 </output>
											</split>
										</split>
										<split pos="right">
											<output> -0.24956377 </output>
										</split>
									</split>
									<split pos="right">
										<output> 0.15090996 </output>
									</split>
								</split>
								<split pos="right">
									<output> -0.013331857 </output>
								</split>
							</split>
							<split pos="right">
								<output> -0.070155784 </output>
							</split>
						</split>
						<split pos="right">
							<output> 1.010277 </output>
						</split>
					</split>
					<split pos="right">
						<output> -0.60986996 </output>
					</split>
				</split>
				<split pos="right">
					<output> 0.17259084 </output>
				</split>
			</split>
			<split pos="right">
				<output> -0.21337199 </output>
			</split>
		</split>
	</tree>
	<tree id="43" weight="0.1">
		<split>
			<feature> 97 </feature>
			<threshold> 0.0029402701 </threshold>
			<split pos="left">
				<feature> 26 </feature>
				<threshold> 0.2875943 </threshold>
				<split pos="left">
					<feature> 162 </feature>
					<threshold> 0.80214894 </threshold>
					<split pos="left">
						<feature> 71 </feature>
						<threshold> 0.022724709 </threshold>
						<split pos="left">
							<feature> 128 </feature>
							<threshold> 0.313726 </threshold>
							<split pos="left">
								<feature> 133 </feature>
								<threshold> 0.0 </threshold>
								<split pos="left">
									<feature> 126 </feature>
									<threshold> 0.80078125 </threshold>
									<split pos="left">
										<feature> 189 </feature>
										<threshold> 9.7E-5 </threshold>
										<split pos="left">
											<feature> 8 </feature>
											<threshold> 0.68774515 </threshold>
											<split pos="left">
												<output> 0.02448967 </output>
											</split>
											<split pos="right">
												<output> -0.13953817 </output>
											</split>
										</split>
										<split pos="right">
											<output> 0.5432131 </output>
										</split>
									</split>
									<split pos="right">
										<output> 0.13388272 </output>
									</split>
								</split>
								<split pos="right">
									<output> -0.12229751 </output>
								</split>
							</split>
							<split pos="right">
								<output> -0.049557414 </output>
							</split>
						</split>
						<split pos="right">
							<output> 0.13969526 </output>
						</split>
					</split>
					<split pos="right">
						<output> 0.11527019 </output>
					</split>
				</split>
				<split pos="right">
					<output> -0.08252163 </output>
				</split>
			</split>
			<split pos="right">
				<output> 0.46635127 </output>
			</split>
		</split>
	</tree>
	<tree id="44" weight="0.1">
		<split>
			<feature> 51 </feature>
			<threshold> 0.025806442 </threshold>
			<split pos="left">
				<output> -0.4124176 </output>
			</split>
			<split pos="right">
				<feature> 61 </feature>
				<threshold> 0.010695077 </threshold>
				<split pos="left">
					<feature> 28 </feature>
					<threshold> 0.0039020078 </threshold>
					<split pos="left">
						<output> 0.46071512 </output>
					</split>
					<split pos="right">
						<feature> 129 </feature>
						<threshold> 0.113359034 </threshold>
						<split pos="left">
							<output> -0.10742969 </output>
						</split>
						<split pos="right">
							<feature> 152 </feature>
							<threshold> 0.639216 </threshold>
							<split pos="left">
								<feature> 26 </feature>
								<threshold> 0.2875943 </threshold>
								<split pos="left">
									<feature> 157 </feature>
									<threshold> 0.035818707 </threshold>
									<split pos="left">
										<feature> 245 </feature>
										<threshold> 0.988282 </threshold>
										<split pos="left">
											<feature> 230 </feature>
											<threshold> 0.09312513 </threshold>
											<split pos="left">
												<output> -0.045017406 </output>
											</split>
											<split pos="right">
												<output> 0.071260385 </output>
											</split>
										</split>
										<split pos="right">
											<output> 0.067614436 </output>
										</split>
									</split>
									<split pos="right">
										<output> 0.21756718 </output>
									</split>
								</split>
								<split pos="right">
									<output> -0.12083563 </output>
								</split>
							</split>
							<split pos="right">
								<output> 0.077682585 </output>
							</split>
						</split>
					</split>
				</split>
				<split pos="right">
					<output> 0.6171602 </output>
				</split>
			</split>
		</split>
	</tree>
	<tree id="45" weight="0.1">
		<split>
			<feature> 134 </feature>
			<threshold> 0.388235 </threshold>
			<split pos="left">
				<feature> 78 </feature>
				<threshold> 0.0 </threshold>
				<split pos="left">
					<feature> 97 </feature>
					<threshold> 0.0031132272 </threshold>
					<split pos="left">
						<feature> 2 </feature>
						<threshold> 0.0 </threshold>
						<split pos="left">
							<feature> 233 </feature>
							<threshold> 0.5467007 </threshold>
							<split pos="left">
								<feature> 199 </feature>
								<threshold> 0.45701894 </threshold>
								<split pos="left">
									<output> -0.012427488 </output>
								</split>
								<split pos="right">
									<output> 0.23611158 </output>
								</split>
							</split>
							<split pos="right">
								<output> -0.14844607 </output>
							</split>
						</split>
						<split pos="right">
							<feature> 174 </feature>
							<threshold> 0.093664765 </threshold>
							<split pos="left">
								<feature> 242 </feature>
								<threshold> 0.286275 </threshold>
								<split pos="left">
									<feature> 159 </feature>
									<threshold> 0.0077999844 </threshold>
									<split pos="left">
										<output> 0.0366827 </output>
									</split>
									<split pos="right">
										<output> 0.38033032 </output>
									</split>
								</split>
								<split pos="right">
									<output> -0.09079634 </output>
								</split>
							</split>
							<split pos="right">
								<output> 0.182768 </output>
							</split>
						</split>
					</split>
					<split pos="right">
						<output> 0.7245603 </output>
					</split>
				</split>
				<split pos="right">
					<output> -0.053201273 </output>
				</split>
			</split>
			<split pos="right">
				<output> 0.10376568 </output>
			</split>
		</split>
	</tree>
	<tree id="46" weight="0.1">
		<split>
			<feature> 204 </feature>
			<threshold> 0.011131781 </threshold>
			<split pos="left">
				<feature> 161 </feature>
				<threshold> 0.6512437 </threshold>
				<split pos="left">
					<feature> 120 </feature>
					<threshold> 0.776471 </threshold>
					<split pos="left">
						<feature> 157 </feature>
						<threshold> 0.43307993 </threshold>
						<split pos="left">
							<feature> 120 </feature>
							<threshold> 0.764706 </threshold>
							<split pos="left">
								<feature> 71 </feature>
								<threshold> 0.0 </threshold>
								<split pos="left">
									<feature> 51 </feature>
									<threshold> 0.17592858 </threshold>
									<split pos="left">
										<output> -0.10576166 </output>
									</split>
									<split pos="right">
										<output> 0.018875495 </output>
									</split>
								</split>
								<split pos="right">
									<output> 0.0690846 </output>
								</split>
							</split>
							<split pos="right">
								<output> 0.18266839 </output>
							</split>
						</split>
						<split pos="right">
							<output> 2.1623566 </output>
						</split>
					</split>
					<split pos="right">
						<feature> 81 </feature>
						<threshold> 0.0 </threshold>
						<split pos="left">
							<feature> 4 </feature>
							<threshold> 0.109375 </threshold>
							<split pos="left">
								<output> -0.04193511 </output>
							</split>
							<split pos="right">
								<output> 0.05942669 </output>
							</split>
						</split>
						<split pos="right">
							<output> -0.14151873 </output>
						</split>
					</split>
				</split>
				<split pos="right">
					<output> -0.62877476 </output>
				</split>
			</split>
			<split pos="right">
				<output> 0.16480218 </output>
			</split>
		</split>
	</tree>
	<tree id="47" weight="0.1">
		<split>
			<feature> 104 </feature>
			<threshold> 0.0 </threshold>
			<split pos="left">
				<feature> 240 </feature>
				<threshold> 0.14685842 </threshold>
				<split pos="left">
					<feature> 189 </feature>
					<threshold> 4.0E-6 </threshold>
					<split pos="left">
						<feature> 26 </feature>
						<threshold> 0.2875943 </threshold>
						<split pos="left">
							<feature> 224 </feature>
							<threshold> 0.054902 </threshold>
							<split pos="left">
								<output> -0.057510998 </output>
							</split>
							<split pos="right">
								<feature> 161 </feature>
								<threshold> 0.6411207 </threshold>
								<split pos="left">
									<feature> 161 </feature>
									<threshold> 0.13497266 </threshold>
									<split pos="left">
										<feature> 128 </feature>
										<threshold> 0.780392 </threshold>
										<split pos="left">
											<feature> 224 </feature>
											<threshold> 0.062745 </threshold>
											<split pos="left">
												<output> 0.13293721 </output>
											</split>
											<split pos="right">
												<output> 0.01254875 </output>
											</split>
										</split>
										<split pos="right">
											<output> -0.46814328 </output>
										</split>
									</split>
									<split pos="right">
										<output> 0.2723985 </output>
									</split>
								</split>
								<split pos="right">
									<output> -0.83256084 </output>
								</split>
							</split>
						</split>
						<split pos="right">
							<output> -0.09776188 </output>
						</split>
					</split>
					<split pos="right">
						<output> 0.14692155 </output>
					</split>
				</split>
				<split pos="right">
					<output> 0.08863857 </output>
				</split>
			</split>
			<split pos="right">
				<output> -0.19203146 </output>
			</split>
		</split>
	</tree>
	<tree id="48" weight="0.1">
		<split>
			<feature> 58 </feature>
			<threshold> 0.939759 </threshold>
			<split pos="left">
				<feature> 199 </feature>
				<threshold> 0.8005909 </threshold>
				<split pos="left">
					<feature> 51 </feature>
					<threshold> 0.023262 </threshold>
					<split pos="left">
						<output> -0.8368331 </output>
					</split>
					<split pos="right">
						<feature> 15 </feature>
						<threshold> 0.05098 </threshold>
						<split pos="left">
							<output> -0.047140658 </output>
						</split>
						<split pos="right">
							<feature> 15 </feature>
							<threshold> 0.054902 </threshold>
							<split pos="left">
								<output> 0.21161813 </output>
							</split>
							<split pos="right">
								<feature> 126 </feature>
								<threshold> 0.9921875 </threshold>
								<split pos="left">
									<feature> 51 </feature>
									<threshold> 0.2140953 </threshold>
									<split pos="left">
										<feature> 4 </feature>
										<threshold> 0.19921875 </threshold>
										<split pos="left">
											<output> -0.070798084 </output>
										</split>
										<split pos="right">
											<output> 0.04046698 </output>
										</split>
									</split>
									<split pos="right">
										<feature> 33 </feature>
										<threshold> 0.4137188 </threshold>
										<split pos="left">
											<output> 0.026855037 </output>
										</split>
										<split pos="right">
											<output> 0.8763235 </output>
										</split>
									</split>
								</split>
								<split pos="right">
									<output> 0.08022181 </output>
								</split>
							</split>
						</split>
					</split>
				</split>
				<split pos="right">
					<output> -0.48479554 </output>
				</split>
			</split>
			<split pos="right">
				<output> 0.40202427 </output>
			</split>
		</split>
	</tree>
	<tree id="49" weight="0.1">
		<split>
			<feature> 15 </feature>
			<threshold> 0.141176 </threshold>
			<split pos="left">
				<feature> 2 </feature>
				<threshold> 0.0 </threshold>
				<split pos="left">
					<feature> 144 </feature>
					<threshold> 0.2640038 </threshold>
					<split pos="left">
						<output> 0.0068955994 </output>
					</split>
					<split pos="right">
						<output> -0.13664997 </output>
					</split>
				</split>
				<split pos="right">
					<output> 0.023920864 </output>
				</split>
			</split>
			<split pos="right">
				<feature> 40 </feature>
				<threshold> 0.70246595 </threshold>
				<split pos="left">
					<feature> 179 </feature>
					<threshold> 0.0149562815 </threshold>
					<split pos="left">
						<output> -0.055446368 </output>
					</split>
					<split pos="right">
						<feature> 147 </feature>
						<threshold> 0.67451 </threshold>
						<split pos="left">
							<feature> 133 </feature>
							<threshold> 0.0 </threshold>
							<split pos="left">
								<feature> 75 </feature>
								<threshold> 0.0 </threshold>
								<split pos="left">
									<feature> 128 </feature>
									<threshold> 0.34902 </threshold>
									<split pos="left">
										<output> 0.068289325 </output>
									</split>
									<split pos="right">
										<output> -0.07453892 </output>
									</split>
								</split>
								<split pos="right">
									<output> 1.9674076 </output>
								</split>
							</split>
							<split pos="right">
								<output> -0.14472146 </output>
							</split>
						</split>
						<split pos="right">
							<output> 0.17164128 </output>
						</split>
					</split>
				</split>
				<split pos="right">
					<output> 0.36039796 </output>
				</split>
			</split>
		</split>
	</tree>
	<tree id="50" weight="0.1">
		<split>
			<feature> 15 </feature>
			<threshold> 0.486275 </threshold>
			<split pos="left">
				<feature> 51 </feature>
				<threshold> 0.025806442 </threshold>
				<split pos="left">
					<output> -0.424122 </output>
				</split>
				<split pos="right">
					<feature> 129 </feature>
					<threshold> 0.13980949 </threshold>
					<split pos="left">
						<output> -0.08338142 </output>
					</split>
					<split pos="right">
						<feature> 147 </feature>
						<threshold> 0.686275 </threshold>
						<split pos="left">
							<feature> 14 </feature>
							<threshold> 0.011765 </threshold>
							<split pos="left">
								<feature> 31 </feature>
								<threshold> 0.16658278 </threshold>
								<split pos="left">
									<feature> 98 </feature>
									<threshold> 0.6701374 </threshold>
									<split pos="left">
										<feature> 101 </feature>
										<threshold> 0.31009597 </threshold>
										<split pos="left">
											<feature> 144 </feature>
											<threshold> 0.48592 </threshold>
											<split pos="left">
												<output> 0.02291298 </output>
											</split>
											<split pos="right">
												<output> -0.11056873 </output>
											</split>
										</split>
										<split pos="right">
											<output> 0.2722686 </output>
										</split>
									</split>
									<split pos="right">
										<output> -0.3512232 </output>
									</split>
								</split>
								<split pos="right">
									<output> 0.11172034 </output>
								</split>
							</split>
							<split pos="right">
								<output> -0.03164794 </output>
							</split>
						</split>
						<split pos="right">
							<output> 0.08311428 </output>
						</split>
					</split>
				</split>
			</split>
			<split pos="right">
				<output> 0.19162308 </output>
			</split>
		</split>
	</tree>
	<tree id="51" weight="0.1">
		<split>
			<feature> 28 </feature>
			<threshold> 0.0039020078 </threshold>
			<split pos="left">
				<output> 0.3837668 </output>
			</split>
			<split pos="right">
				<feature> 150 </feature>
				<threshold> 0.3826618 </threshold>
				<split pos="left">
					<output> -0.04523069 </output>
				</split>
				<split pos="right">
					<feature> 67 </feature>
					<threshold> 0.03125 </threshold>
					<split pos="left">
						<feature> 147 </feature>
						<threshold> 0.529412 </threshold>
						<split pos="left">
							<feature> 7 </feature>
							<threshold> 0.46302077 </threshold>
							<split pos="left">
								<output> 0.12395058 </output>
							</split>
							<split pos="right">
								<feature> 51 </feature>
								<threshold> 0.17083968 </threshold>
								<split pos="left">
									<output> -0.11566409 </output>
								</split>
								<split pos="right">
									<feature> 85 </feature>
									<threshold> 0.623529 </threshold>
									<split pos="left">
										<output> 0.076770864 </output>
									</split>
									<split pos="right">
										<output> -0.0518309 </output>
									</split>
								</split>
							</split>
						</split>
						<split pos="right">
							<feature> 224 </feature>
							<threshold> 0.066667 </threshold>
							<split pos="left">
								<output> -0.031315107 </output>
							</split>
							<split pos="right">
								<output> 0.09624868 </output>
							</split>
						</split>
					</split>
					<split pos="right">
						<feature> 30 </feature>
						<threshold> 0.36235544 </threshold>
						<split pos="left">
							<output> 0.05611503 </output>
						</split>
						<split pos="right">
							<output> 0.47761247 </output>
						</split>
					</split>
				</split>
			</split>
		</split>
	</tree>
	<tree id="52" weight="0.1">
		<split>
			<feature> 128 </feature>
			<threshold> 0.494118 </threshold>
			<split pos="left">
				<feature> 73 </feature>
				<threshold> 0.922297 </threshold>
				<split pos="left">
					<feature> 28 </feature>
					<threshold> 0.24192438 </threshold>
					<split pos="left">
						<output> 0.29748064 </output>
					</split>
					<split pos="right">
						<feature> 240 </feature>
						<threshold> 0.48308742 </threshold>
						<split pos="left">
							<feature> 128 </feature>
							<threshold> 0.313726 </threshold>
							<split pos="left">
								<output> 0.033227056 </output>
							</split>
							<split pos="right">
								<output> -0.083097756 </output>
							</split>
						</split>
						<split pos="right">
							<output> 0.21208227 </output>
						</split>
					</split>
				</split>
				<split pos="right">
					<feature> 51 </feature>
					<threshold> 0.155573 </threshold>
					<split pos="left">
						<output> -0.12841801 </output>
					</split>
					<split pos="right">
						<feature> 26 </feature>
						<threshold> 0.3425282 </threshold>
						<split pos="left">
							<feature> 168 </feature>
							<threshold> 0.96484375 </threshold>
							<split pos="left">
								<feature> 181 </feature>
								<threshold> 0.49111965 </threshold>
								<split pos="left">
									<output> 0.021355495 </output>
								</split>
								<split pos="right">
									<output> 1.5928186 </output>
								</split>
							</split>
							<split pos="right">
								<output> 0.5849237 </output>
							</split>
						</split>
						<split pos="right">
							<output> -0.32085907 </output>
						</split>
					</split>
				</split>
			</split>
			<split pos="right">
				<output> -0.070194535 </output>
			</split>
		</split>
	</tree>
	<tree id="53" weight="0.1">
		<split>
			<feature> 104 </feature>
			<threshold> 0.0 </threshold>
			<split pos="left">
				<feature> 232 </feature>
				<threshold> 0.0 </threshold>
				<split pos="left">
					<feature> 26 </feature>
					<threshold> 0.23266046 </threshold>
					<split pos="left">
						<output> 0.07836609 </output>
					</split>
					<split pos="right">
						<output> -0.05928168 </output>
					</split>
				</split>
				<split pos="right">
					<feature> 204 </feature>
					<threshold> 9.2764845E-4 </threshold>
					<split pos="left">
						<feature> 73 </feature>
						<threshold> 0.706081 </threshold>
						<split pos="left">
							<output> 0.08485255 </output>
						</split>
						<split pos="right">
							<feature> 166 </feature>
							<threshold> 0.203922 </threshold>
							<split pos="left">
								<output> 0.014634338 </output>
							</split>
							<split pos="right">
								<feature> 3 </feature>
								<threshold> 0.86328125 </threshold>
								<split pos="left">
									<feature> 152 </feature>
									<threshold> 0.643137 </threshold>
									<split pos="left">
										<feature> 133 </feature>
										<threshold> 0.0 </threshold>
										<split pos="left">
											<output> -0.057409793 </output>
										</split>
										<split pos="right">
											<output> -0.2272726 </output>
										</split>
									</split>
									<split pos="right">
										<output> 0.018071227 </output>
									</split>
								</split>
								<split pos="right">
									<output> -0.64847916 </output>
								</split>
							</split>
						</split>
					</split>
					<split pos="right">
						<output> 0.12469316 </output>
					</split>
				</split>
			</split>
			<split pos="right">
				<output> -0.16996512 </output>
			</split>
		</split>
	</tree>
	<tree id="54" weight="0.1">
		<split>
			<feature> 15 </feature>
			<threshold> 0.388235 </threshold>
			<split pos="left">
				<feature> 78 </feature>
				<threshold> 0.0 </threshold>
				<split pos="left">
					<feature> 185 </feature>
					<threshold> 0.647059 </threshold>
					<split pos="left">
						<output> 0.06679294 </output>
					</split>
					<split pos="right">
						<feature> 73 </feature>
						<threshold> 0.25 </threshold>
						<split pos="left">
							<output> -0.8017446 </output>
						</split>
						<split pos="right">
							<feature> 97 </feature>
							<threshold> 0.0031132272 </threshold>
							<split pos="left">
								<feature> 22 </feature>
								<threshold> 0.0 </threshold>
								<split pos="left">
									<output> 0.046735384 </output>
								</split>
								<split pos="right">
									<feature> 15 </feature>
									<threshold> 0.141176 </threshold>
									<split pos="left">
										<feature> 86 </feature>
										<threshold> 0.129412 </threshold>
										<split pos="left">
											<output> -0.046819467 </output>
										</split>
										<split pos="right">
											<output> -0.22797002 </output>
										</split>
									</split>
									<split pos="right">
										<output> 0.021439295 </output>
									</split>
								</split>
							</split>
							<split pos="right">
								<output> 0.52985847 </output>
							</split>
						</split>
					</split>
				</split>
				<split pos="right">
					<feature> 150 </feature>
					<threshold> 0.8495092 </threshold>
					<split pos="left">
						<output> -0.05896033 </output>
					</split>
					<split pos="right">
						<output> 0.12449243 </output>
					</split>
				</split>
			</split>
			<split pos="right">
				<output> 0.0971207 </output>
			</split>
		</split>
	</tree>
	<tree id="55" weight="0.1">
		<split>
			<feature> 58 </feature>
			<threshold> 0.930556 </threshold>
			<split pos="left">
				<feature> 167 </feature>
				<threshold> 0.9409133 </threshold>
				<split pos="left">
					<feature> 51 </feature>
					<threshold> 0.025806442 </threshold>
					<split pos="left">
						<output> -0.3842985 </output>
					</split>
					<split pos="right">
						<feature> 73 </feature>
						<threshold> 0.871622 </threshold>
						<split pos="left">
							<output> 0.03932837 </output>
						</split>
						<split pos="right">
							<feature> 77 </feature>
							<threshold> 0.9145617 </threshold>
							<split pos="left">
								<feature> 98 </feature>
								<threshold> 0.6701374 </threshold>
								<split pos="left">
									<feature> 129 </feature>
									<threshold> 0.8237427 </threshold>
									<split pos="left">
										<feature> 163 </feature>
										<threshold> 0.0 </threshold>
										<split pos="left">
											<feature> 161 </feature>
											<threshold> 0.006748633 </threshold>
											<split pos="left">
												<output> -0.015243184 </output>
											</split>
											<split pos="right">
												<output> 0.12159564 </output>
											</split>
										</split>
										<split pos="right">
											<output> -0.100774646 </output>
										</split>
									</split>
									<split pos="right">
										<output> 0.15020543 </output>
									</split>
								</split>
								<split pos="right">
									<output> -0.33027703 </output>
								</split>
							</split>
							<split pos="right">
								<output> -0.5192074 </output>
							</split>
						</split>
					</split>
				</split>
				<split pos="right">
					<output> -0.42112663 </output>
				</split>
			</split>
			<split pos="right">
				<output> 0.32246658 </output>
			</split>
		</split>
	</tree>
	<tree id="56" weight="0.1">
		<split>
			<feature> 128 </feature>
			<threshold> 0.780392 </threshold>
			<split pos="left">
				<feature> 152 </feature>
				<threshold> 0.639216 </threshold>
				<split pos="left">
					<feature> 113 </feature>
					<threshold> 0.2713341 </threshold>
					<split pos="left">
						<feature> 71 </feature>
						<threshold> 0.42203066 </threshold>
						<split pos="left">
							<feature> 245 </feature>
							<threshold> 0.988282 </threshold>
							<split pos="left">
								<feature> 73 </feature>
								<threshold> 0.756757 </threshold>
								<split pos="left">
									<output> 0.067455135 </output>
								</split>
								<split pos="right">
									<feature> 73 </feature>
									<threshold> 0.760135 </threshold>
